{"learner":{"attributes":{"scikit_learn":"{\"_estimator_type\": \"classifier\"}"},"feature_names":["HC_LEUCO","HC_ERYTH","HC_HB","HC_HTE","HC_VGM","HC_TCMH","HC_CCMH","HC_IDR","HC_NP","HC_VPM","HC_PN","HC_IG","HC_PE","HC_PB","HC_LY","HC_MONO","HC_RETIA","HC_IRF","HC_BLS","HC_METAM","HC_MYELON"],"feature_types":["float","float","float","float","float","float","float","float","float","float","float","float","float","float","float","float","float","float","float","float","float"],"gradient_booster":{"model":{"gbtree_model_param":{"num_parallel_tree":"1","num_trees":"100"},"iteration_indptr":[0,1,2,3,4,5,6,7,8,9,10,11,12,13,14,15,16,17,18,19,20,21,22,23,24,25,26,27,28,29,30,31,32,33,34,35,36,37,38,39,40,41,42,43,44,45,46,47,48,49,50,51,52,53,54,55,56,57,58,59,60,61,62,63,64,65,66,67,68,69,70,71,72,73,74,75,76,77,78,79,80,81,82,83,84,85,86,87,88,89,90,91,92,93,94,95,96,97,98,99,100],"tree_info":[0,0,0,0,0,0,0,0,0,0,0,0,0,0,0,0,0,0,0,0,0,0,0,0,0,0,0,0,0,0,0,0,0,0,0,0,0,0,0,0,0,0,0,0,0,0,0,0,0,0,0,0,0,0,0,0,0,0,0,0,0,0,0,0,0,0,0,0,0,0,0,0,0,0,0,0,0,0,0,0,0,0,0,0,0,0,0,0,0,0,0,0,0,0,0,0,0,0,0,0],"trees":[{"base_weights":[-2.7203036E-3,8.52214E-1,-8.5718614E-1,1.0729896E0,-5.1768726E-1,3.0911875E-1,-1.2263681E0,1.2342155E0,-5.1734805E-1,7.4506533E-1,-5.1717865E-1,-1.3649724E0,-4.711475E-2,8.807896E-1,2.0977614E0,1.4770684E0,-4.4170362E-1,-1.4794246E0,1.8457022E-1,2.2700124E0,-1.0733372E0,-1.1380907E0,1.134872E0,2.1324284E0,-4.984312E-1,1.6779507E0,-5.118797E-1,2.2898676E0,-1.1369582E0,-4.566067E-1,-1.560597E0,1.4922553E0,-5.1582944E-1,-4.4765538E-1,7.096298E-1,1.6558242E0,-1.3761201E0,-4.1707048E-1,6.49812E-1,4.5836547E-1,1.2717433E-1,1.430485E-1,6.5834534E-1,-8.5851945E-2,5.799003E-1,-3.8624913E-1,7.0805126E-1,-5.172076E-1,1.1797052E-1,-5.167617E-1,5.992563E-1,-4.8572508E-1,-2.6810396E-1,-5.051662E-1,5.859294E-1,-4.7216657E-1,6.984854E-1,-5.17234E-1,4.671121E-1],"categories":[],"categories_nodes":[],"categories_segments":[],"categories_sizes":[],"default_left":[0,1,0,0,0,0,0,0,0,0,0,0,0,0,0,0,0,0,0,0,0,1,0,0,0,0,0,0,0,0,0,0,0,0,0,0,0,0,0,0,0,0,0,0,0,0,0,0,0,0,0,0,0,0,0,0,0,0,0],"id":0,"left_children":[1,3,5,7,-1,9,11,13,-1,15,-1,17,19,21,23,25,27,29,31,33,35,37,39,41,-1,43,-1,45,47,49,51,53,-1,-1,-1,55,57,-1,-1,-1,-1,-1,-1,-1,-1,-1,-1,-1,-1,-1,-1,-1,-1,-1,-1,-1,-1,-1,-1],"loss_changes":[1.6156908E4,6.293846E3,4.7632886E3,4.595412E3,0E0,2.359184E3,1.3732803E3,2.93713E3,0E0,1.9043129E3,0E0,1.3336748E3,2.1062358E3,3.5072925E3,3.6790137E2,8.6972656E2,1.5917212E3,5.80583E2,1.2923639E3,1.01133545E2,5.095287E2,6.399519E2,1.6957646E3,2.8362305E2,0E0,6.3957666E2,0E0,4.581848E1,6.004538E2,1.6071743E3,2.5155566E2,4.5358093E2,0E0,0E0,0E0,1.3778827E2,5.6723804E2,0E0,0E0,0E0,0E0,0E0,0E0,0E0,0E0,0E0,0E0,0E0,0E0,0E0,0E0,0E0,0E0,0E0,0E0,0E0,0E0,0E0,0E0],"parents":[2147483647,0,0,1,1,2,2,3,3,5,5,6,6,7,7,9,9,11,11,12,12,13,13,14,14,15,15,16,16,17,17,18,18,19,19,20,20,21,21,22,22,23,23,25,25,27,27,28,28,29,29,30,30,31,31,35,35,36,36],"right_children":[2,4,6,8,-1,10,12,14,-1,16,-1,18,20,22,24,26,28,30,32,34,36,38,40,42,-1,44,-1,46,48,50,52,54,-1,-1,-1,56,58,-1,-1,-1,-1,-1,-1,-1,-1,-1,-1,-1,-1,-1,-1,-1,-1,-1,-1,-1,-1,-1,-1],"split_conditions":[1.34E-1,2.93E0,9.9E0,1.28E1,-5.1768726E-1,9.8E0,4E2,3.44E1,-5.1734805E-1,3.19E1,-5.1717865E-1,1.019E2,4.03E2,4.8E0,9.9E-2,2.3E-1,1.58E0,2.9E-1,9.9E0,3.24E1,1.2E1,3.3E1,2.61E2,1.35E1,-4.984312E-1,2.66E0,-5.118797E-1,1.119E2,9.4E0,2.8E-1,5.28E0,3.95E1,-5.1582944E-1,-4.4765538E-1,7.096298E-1,2.03E1,1.64E1,-4.1707048E-1,6.49812E-1,4.5836547E-1,1.2717433E-1,1.430485E-1,6.5834534E-1,-8.5851945E-2,5.799003E-1,-3.8624913E-1,7.0805126E-1,-5.172076E-1,1.1797052E-1,-5.167617E-1,5.992563E-1,-4.8572508E-1,-2.6810396E-1,-5.051662E-1,5.859294E-1,-4.7216657E-1,6.984854E-1,-5.17234E-1,4.671121E-1],"split_indices":[16,14,2,2,0,0,8,5,0,6,0,4,8,0,16,12,1,15,9,6,7,7,8,7,0,1,0,4,2,15,1,3,0,0,0,0,2,0,0,0,0,0,0,0,0,0,0,0,0,0,0,0,0,0,0,0,0,0,0],"split_type":[0,0,0,0,0,0,0,0,0,0,0,0,0,0,0,0,0,0,0,0,0,0,0,0,0,0,0,0,0,0,0,0,0,0,0,0,0,0,0,0,0,0,0,0,0,0,0,0,0,0,0,0,0,0,0,0,0,0,0],"sum_hessian":[2.2115234E4,1.1054588E4,1.10606455E4,1.0183058E4,8.715307E2,2.659385E3,8.401261E3,9.62869E3,5.543667E2,2.190343E3,4.69042E2,7.5175264E3,8.837344E2,6.8338154E3,2.794875E3,1.3545854E3,8.3575757E2,7.0005005E3,5.170256E2,2.7088528E2,6.1284906E2,7.6352704E2,6.0702886E3,2.7697651E3,2.5109837E1,1.274624E3,7.996142E1,1.6909808E2,6.666595E2,5.152078E2,6.485293E3,3.0663928E2,2.1038629E2,6.338405E0,2.645469E2,6.0755455E1,5.520936E2,7.0993024E2,5.359681E1,3.9085293E3,2.161759E3,1.0038062E2,2.6693845E3,1.4647882E2,1.1281453E3,2.925418E0,1.6617267E2,4.8171878E2,1.849407E2,3.400798E2,1.7512799E2,5.961095E3,5.241977E2,3.8518E1,2.6812128E2,1.0238962E1,5.051649E1,4.9390805E2,5.8185577E1],"tree_param":{"num_deleted":"0","num_feature":"21","num_nodes":"59","size_leaf_vector":"1"}},{"base_weights":[-1.9921128E-2,4.6784243E-1,-8.621166E-1,6.0156935E-1,-4.3201166E-1,5.4345095E-1,-1.0544235E0,4.0042108E-1,1.6008381E0,1.129503E0,-1.5755402E0,-1.1325417E0,1.4334944E0,-2.1868256E-1,7.4535894E-1,1.6249238E0,-4.8335382E-1,-1.6130822E0,1.4715956E0,-1.6821375E0,-4.2584187E-1,-5.1305383E-1,-1.3710581E0,5.576057E-1,-4.6177638E-1,5.992591E-1,-6.407605E-1,-1.08284E0,8.615551E-1,-5.120371E-1,1.640251E0,-5.4594505E-1,-4.2039824E-1,1.6679567E0,-4.566936E-1,-5.74592E-1,-4.2244634E-1,-4.4258356E-1,-2.3227882E-2,-1.4345118E0,-4.8101196E-1,-5.329594E-1,2.6097178E-1,-2.7978888E-3,-3.6460212E-1,4.7104695E-1,-4.7616646E-1,2.7745762E-1,-5.185217E-1,4.9546367E-1,-4.057302E-1,5.2798015E-1,-5.333628E-1,-4.454541E-1,1.01101376E-1,-4.424006E-1,4.934613E-2,-2.672765E-1,4.6583578E-1],"categories":[],"categories_nodes":[],"categories_segments":[],"categories_sizes":[],"default_left":[0,1,0,0,0,0,1,0,0,0,0,0,0,0,0,0,0,0,0,0,0,1,0,0,0,0,0,0,0,0,1,0,0,0,0,0,0,0,0,0,0,0,0,0,0,0,0,0,0,0,0,0,0,0,0,0,0,0,0],"id":1,"left_children":[1,3,5,7,-1,9,11,13,15,17,19,21,23,25,27,29,-1,31,33,35,-1,37,39,-1,-1,41,43,45,47,-1,49,-1,-1,51,-1,-1,-1,-1,53,55,57,-1,-1,-1,-1,-1,-1,-1,-1,-1,-1,-1,-1,-1,-1,-1,-1,-1,-1],"loss_changes":[8.589991E3,3.3793079E3,2.0735176E3,2.486774E3,0E0,1.1487946E3,1.3127959E3,2.2003535E3,1.630166E2,6.817525E2,9.482727E-1,9.658672E2,2.630182E2,1.2733218E3,1.4065078E3,1.079126E2,0E0,9.862366E-1,3.8133472E2,4.569275E0,0E0,8.5781506E2,2.660205E2,0E0,0E0,8.088662E2,8.8256226E2,5.3219006E2,1.021687E3,0E0,7.150635E1,0E0,0E0,1.949242E2,0E0,0E0,0E0,0E0,6.360804E2,2.8326562E2,2.646388E2,0E0,0E0,0E0,0E0,0E0,0E0,0E0,0E0,0E0,0E0,0E0,0E0,0E0,0E0,0E0,0E0,0E0,0E0],"parents":[2147483647,0,0,1,1,2,2,3,3,5,5,6,6,7,7,8,8,9,9,10,10,11,11,12,12,13,13,14,14,15,15,17,17,18,18,19,19,21,21,22,22,25,25,26,26,27,27,28,28,30,30,33,33,38,38,39,39,40,40],"right_children":[2,4,6,8,-1,10,12,14,16,18,20,22,24,26,28,30,-1,32,34,36,-1,38,40,-1,-1,42,44,46,48,-1,50,-1,-1,52,-1,-1,-1,-1,54,56,58,-1,-1,-1,-1,-1,-1,-1,-1,-1,-1,-1,-1,-1,-1,-1,-1,-1,-1],"split_conditions":[3.59E1,2.93E0,5E-2,3.86E1,-4.3201166E-1,1.53E0,2.14E1,1.19E0,8.6E-1,7.6E0,2.93E0,6.3E0,2.15E1,3.14E1,1.31E1,3.25E1,-4.8335382E-1,1.28E1,3.91E1,1.28E1,-4.2584187E-1,3E-2,4.42E2,5.576057E-1,-4.6177638E-1,6E-2,1.01E1,1.17E1,1.4E0,-5.120371E-1,2.83E-1,-5.4594505E-1,-4.2039824E-1,1.57E1,-4.566936E-1,-5.74592E-1,-4.2244634E-1,-4.4258356E-1,3.89E1,1.059E2,3.51E1,-5.329594E-1,2.6097178E-1,-2.7978888E-3,-3.6460212E-1,4.7104695E-1,-4.7616646E-1,2.7745762E-1,-5.185217E-1,4.9546367E-1,-4.057302E-1,5.2798015E-1,-5.333628E-1,-4.454541E-1,1.01101376E-1,-4.424006E-1,4.934613E-2,-2.672765E-1,4.6583578E-1],"split_indices":[3,14,16,5,0,14,7,14,15,0,14,0,7,6,7,6,0,2,3,2,0,13,8,0,0,16,9,7,20,0,16,0,0,0,0,0,0,0,3,4,6,0,0,0,0,0,0,0,0,0,0,0,0,0,0,0,0,0,0],"split_type":[0,0,0,0,0,0,0,0,0,0,0,0,0,0,0,0,0,0,0,0,0,0,0,0,0,0,0,0,0,0,0,0,0,0,0,0,0,0,0,0,0,0,0,0,0,0,0,0,0,0,0,0,0,0,0,0,0,0,0],"sum_hessian":[2.090881E4,1.3240769E4,7.6680415E3,1.2374127E4,8.6664105E2,9.2264215E2,6.7453994E3,1.0301818E4,2.0723088E3,7.2311597E2,1.9952614E2,6.5405767E3,2.0482278E2,3.686162E3,6.6156562E3,2.0573755E3,1.493338E1,7.978197E1,6.4333405E2,1.1274244E2,8.678371E1,1.8190897E3,4.721487E3,1.7952077E2,2.530202E1,1.2545531E3,2.431609E3,3.9485156E2,6.2208047E3,8.91604E0,2.0484595E3,3.652697E1,4.3254997E1,6.041524E2,3.9181595E1,5.7671444E1,5.5071E1,6.129621E2,1.2061277E3,4.4067095E3,3.1477762E2,1.2773209E2,1.126821E3,1.1589728E3,1.2726361E3,6.2738792E1,3.3211276E2,6.0730117E3,1.4779314E2,2.0412041E3,7.2554193E0,5.8892206E2,1.5230388E1,2.3786884E2,9.6825885E2,4.2988276E3,1.0788186E2,2.624442E2,5.2333393E1],"tree_param":{"num_deleted":"0","num_feature":"21","num_nodes":"59","size_leaf_vector":"1"}},{"base_weights":[-2.677298E-2,4.7713706E-1,-5.995597E-1,5.897545E-1,-3.8374808E-1,2.3141448E-1,-8.340381E-1,-1.7734338E-2,8.8066614E-1,-7.5735325E-1,9.615782E-1,-1.1815004E0,-4.7702834E-1,-1.8204077E0,2.811009E-1,9.4447017E-1,-3.9155945E-1,-1.2773734E0,1.3084506E0,1.3686029E0,-8.267314E-1,-1.3264201E0,-2.0303169E-1,-6.887018E-1,8.3092934E-1,-4.1436255E-1,-1.9261007E0,-1.7643688E0,5.4849523E-1,-1.5430899E0,9.7639483E-1,-1.468113E0,4.1440538E-1,1.5211302E0,-4.212866E-1,1.46181E0,-1.9831407E0,4.6528572E-1,-1.540974E0,-3.153509E-1,-1.3837574E0,1.64649E0,-9.8041123E-1,-8.945662E-1,2.5471035E-1,1.4219176E0,-4.0083823E-1,-5.932815E-1,-3.9173618E-1,-5.468655E-1,-3.7257203E-1,2.0260759E-1,-5.3635895E-1,-4.3151748E-1,-6.427712E-1,-9.465685E-2,3.1103736E-1,-4.7944766E-1,-4.1882253E-1,4.8189187E-1,-3.7232012E-1,-5.1755905E-1,4.587296E-1,-6.5846527E-1,-3.7296885E-1,-4.883531E-1,-3.7667456E-1,-3.9209813E-1,5.5710036E-1,-5.576463E-1,-4.0484348E-1,7.338816E-1,-4.232926E-1,-4.127486E-1,2.8939268E-1,1.4009993E-1,-3.1734955E-1,-2.2432645E-1,3.102448E-1,4.6516606E-1,-3.7939322E-1],"categories":[],"categories_nodes":[],"categories_segments":[],"categories_sizes":[],"default_left":[0,1,0,0,0,0,0,0,0,0,0,0,0,0,0,0,0,0,0,0,0,0,0,0,0,0,0,0,1,0,0,0,0,0,0,0,0,0,1,0,0,0,0,0,1,0,0,0,0,0,0,0,0,0,0,0,0,0,0,0,0,0,0,0,0,0,0,0,0,0,0,0,0,0,0,0,0,0,0,0,0],"id":2,"left_children":[1,3,5,7,-1,9,11,13,15,17,19,21,23,25,27,29,-1,31,33,35,37,39,41,43,45,-1,47,49,51,53,55,57,-1,59,-1,61,63,-1,65,67,69,71,73,75,77,79,-1,-1,-1,-1,-1,-1,-1,-1,-1,-1,-1,-1,-1,-1,-1,-1,-1,-1,-1,-1,-1,-1,-1,-1,-1,-1,-1,-1,-1,-1,-1,-1,-1,-1,-1],"loss_changes":[5.5204116E3,2.013227E3,1.7443054E3,1.6899324E3,0E0,1.423515E3,8.654785E2,1.6690776E3,9.0302686E2,9.015553E2,8.265862E2,5.0133154E2,9.5439276E2,1.7791626E1,1.4546425E3,5.004829E2,0E0,3.4166064E2,9.9613525E1,2.9161353E2,3.605157E2,1.7816846E2,6.59418E2,5.7623096E2,6.17068E2,0E0,8.682373E0,7.1375732E0,6.981252E2,1.9394684E0,4.8442188E2,3.6275635E0,0E0,3.896704E1,0E0,1.9558557E2,1.2552032E0,0E0,1.9889832E0,3.6139035E2,4.4965332E1,3.3543912E2,2.4955536E2,5.4173645E2,4.1647903E2,1.325567E2,0E0,0E0,0E0,0E0,0E0,0E0,0E0,0E0,0E0,0E0,0E0,0E0,0E0,0E0,0E0,0E0,0E0,0E0,0E0,0E0,0E0,0E0,0E0,0E0,0E0,0E0,0E0,0E0,0E0,0E0,0E0,0E0,0E0,0E0,0E0],"parents":[2147483647,0,0,1,1,2,2,3,3,5,5,6,6,7,7,8,8,9,9,10,10,11,11,12,12,13,13,14,14,15,15,17,17,18,18,19,19,20,20,21,21,22,22,23,23,24,24,26,26,27,27,28,28,29,29,30,30,31,31,33,33,35,35,36,36,38,38,39,39,40,40,41,41,42,42,43,43,44,44,45,45],"right_children":[2,4,6,8,-1,10,12,14,16,18,20,22,24,26,28,30,-1,32,34,36,38,40,42,44,46,-1,48,50,52,54,56,58,-1,60,-1,62,64,-1,66,68,70,72,74,76,78,80,-1,-1,-1,-1,-1,-1,-1,-1,-1,-1,-1,-1,-1,-1,-1,-1,-1,-1,-1,-1,-1,-1,-1,-1,-1,-1,-1,-1,-1,-1,-1,-1,-1,-1,-1],"split_conditions":[1.34E-1,2.93E0,2.84E1,9.15E1,-3.8374808E-1,2.77E0,3.05E1,4E-2,1.28E1,2.72E1,6.8E-1,5.28E0,9E-1,4.4E0,2E-2,1.7E0,-3.9155945E-1,4.7E1,2.62E2,1.84E1,1E1,1.2E1,5.4E0,1.019E2,6E-1,-4.1436255E-1,1.27E1,1.26E1,2.12E0,3.43E1,1.32E1,3.19E1,4.1440538E-1,1.1E0,-4.212866E-1,8E-1,3.17E1,4.6528572E-1,2.93E0,4.61E2,9.9E0,5.32E0,3.52E1,2.9E-1,1.5E-1,1E-2,-4.0083823E-1,-5.932815E-1,-3.9173618E-1,-5.468655E-1,-3.7257203E-1,2.0260759E-1,-5.3635895E-1,-4.3151748E-1,-6.427712E-1,-9.465685E-2,3.1103736E-1,-4.7944766E-1,-4.1882253E-1,4.8189187E-1,-3.7232012E-1,-5.1755905E-1,4.587296E-1,-6.5846527E-1,-3.7296885E-1,-4.883531E-1,-3.7667456E-1,-3.9209813E-1,5.5710036E-1,-5.576463E-1,-4.0484348E-1,7.338816E-1,-4.232926E-1,-4.127486E-1,2.8939268E-1,1.4009993E-1,-3.1734955E-1,-2.2432645E-1,3.102448E-1,4.6516606E-1,-3.7939322E-1],"split_indices":[16,14,3,4,0,1,5,16,2,7,15,1,19,0,13,0,0,5,8,7,8,7,0,4,20,0,2,2,14,5,7,6,0,11,0,14,6,0,14,8,2,1,6,15,12,13,0,0,0,0,0,0,0,0,0,0,0,0,0,0,0,0,0,0,0,0,0,0,0,0,0,0,0,0,0,0,0,0,0,0,0],"split_type":[0,0,0,0,0,0,0,0,0,0,0,0,0,0,0,0,0,0,0,0,0,0,0,0,0,0,0,0,0,0,0,0,0,0,0,0,0,0,0,0,0,0,0,0,0,0,0,0,0,0,0,0,0,0,0,0,0,0,0,0,0,0,0,0,0,0,0,0,0,0,0,0,0,0,0,0,0,0,0,0,0],"sum_hessian":[1.9124068E4,1.017381E4,8.950259E3,9.561379E3,6.124312E2,1.9697217E3,6.980537E3,3.0963801E3,6.4649985E3,8.36678E2,1.1330437E3,3.5364E3,3.444137E3,4.3958224E2,2.656798E3,6.282193E3,1.8280551E2,6.687234E2,1.679546E2,9.231636E2,2.0988013E2,3.0798865E3,4.565134E2,2.9648015E3,4.793355E2,8.7994675E1,3.515876E2,3.0650995E2,2.350288E3,7.900249E1,6.2031904E3,6.2437775E2,4.4345665E1,1.5615154E2,1.1803067E1,8.987349E2,2.4428642E1,4.8212215E1,1.6166791E2,1.6563434E2,2.9142522E3,1.3476527E2,3.217481E2,2.4337734E3,5.310282E2,3.7689465E2,1.02440865E2,3.226132E2,2.897439E1,2.733999E2,3.3110023E1,2.2299155E3,1.2037263E2,7.015025E1,8.852233E0,2.768549E2,5.9263354E3,2.1502365E2,4.093541E2,1.5188638E2,4.2651496E0,1.8073582E1,8.806614E2,1.7464375E1,6.964267E0,1.2033549E2,4.1332413E1,1.1399558E2,5.1638752E1,1.9254863E2,2.7217036E3,1.0698079E2,2.7784485E1,2.676327E2,5.4115425E1,2.6038794E2,2.1733855E3,2.3229967E2,2.9872852E2,3.600766E2,1.6818052E1],"tree_param":{"num_deleted":"0","num_feature":"21","num_nodes":"81","size_leaf_vector":"1"}},{"base_weights":[-3.1846732E-2,3.6252874E-1,-5.2268153E-1,1.4868721E-1,1.0354304E0,-1.9262882E-1,-9.869832E-1,-6.409239E-2,9.479016E-1,1.082587E0,-1.9838536E0,-5.6264758E-2,-3.74623E-1,-4.0667817E-1,-1.1821135E0,-9.986767E-1,2.6635084E-1,1.190568E0,-1.7357605E0,1.124141E0,-1.5467943E0,-2.4169176E0,-3.3372456E-1,5.622435E-1,-2.6961306E-1,-3.824816E-1,5.40738E-1,-1.2246763E0,-9.319986E-2,-1.2703618E0,7.569469E-1,4.0839624E-1,-3.78791E-1,1.3448879E0,-1.6773894E0,-2.2109067E0,-1.3907834E0,1.1435615E0,-4.4692177E-1,-5.8605343E-1,-3.4819373E-1,-7.634967E-1,-2.4301912E-1,-2.4565482E-1,1.0990806E0,-7.012485E-1,2.4783657E-1,1.7918582E-1,3.2496037E0,-3.9259538E-1,-3.6418238E-1,-3.824372E-1,1.2382033E0,-1.5749082E-1,-5.0291187E-1,-4.7188005E-1,3.719259E-1,-4.5301074E-1,1.503597E-1,-5.330935E-1,4.2313108E-1,-5.2759796E-1,-3.2539853E-1,-3.5281318E-1,-7.002202E-1,-4.780896E-1,-3.7196264E-1,3.4691986E-1,-6.0132325E-1,-3.014454E-1,3.4413964E-1,-5.3334594E-1,3.7501585E-1,2.8617674E-2,-4.0978652E-1,-7.074474E-2,3.847212E-1,-3.8271526E-1,3.0780977E-1,1.104093E0,-3.05624E-1,4.1104218E-1,-2.9394853E-1],"categories":[],"categories_nodes":[],"categories_segments":[],"categories_sizes":[],"default_left":[0,0,0,0,0,0,0,0,0,0,0,0,0,0,0,1,0,0,0,0,0,0,0,0,0,0,0,0,0,0,0,0,0,0,1,0,0,1,0,0,0,0,0,0,0,0,0,0,0,0,0,0,0,0,0,0,0,0,0,0,0,0,0,0,0,0,0,0,0,0,0,0,0,0,0,0,0,0,0,0,0,0,0],"id":3,"left_children":[1,3,5,7,9,11,13,15,17,19,21,23,-1,25,27,29,31,33,35,37,39,41,-1,43,45,-1,47,49,51,53,55,57,-1,59,61,63,65,67,-1,-1,-1,-1,-1,69,71,73,75,77,79,-1,-1,-1,81,-1,-1,-1,-1,-1,-1,-1,-1,-1,-1,-1,-1,-1,-1,-1,-1,-1,-1,-1,-1,-1,-1,-1,-1,-1,-1,-1,-1,-1,-1],"loss_changes":[3.2776255E3,1.350826E3,1.1558145E3,1.2118398E3,3.244873E2,6.351074E2,3.544082E2,1.7384792E3,9.7781494E2,2.4536768E2,1.0583664E1,5.1573145E2,0E0,6.5069965E2,1.0856543E2,7.0232654E2,9.037903E2,6.1065356E2,1.7357727E1,1.1316211E2,3.2470322E0,2.5976868E0,0E0,4.3502194E2,6.491735E2,0E0,3.7018866E2,4.4580078E-1,1.4204799E2,3.8460596E2,2.2432086E2,6.784004E2,0E0,2.6955835E2,1.4950714E0,3.7219238E0,3.1736755E-1,9.042212E1,0E0,0E0,0E0,0E0,0E0,4.2514087E2,2.6386963E2,8.391772E2,6.6191846E2,4.1411887E2,8.559436E1,0E0,0E0,0E0,1.3777115E1,0E0,0E0,0E0,0E0,0E0,0E0,0E0,0E0,0E0,0E0,0E0,0E0,0E0,0E0,0E0,0E0,0E0,0E0,0E0,0E0,0E0,0E0,0E0,0E0,0E0,0E0,0E0,0E0,0E0,0E0],"parents":[2147483647,0,0,1,1,2,2,3,3,4,4,5,5,6,6,7,7,8,8,9,9,10,10,11,11,13,13,14,14,15,15,16,16,17,17,18,18,19,19,20,20,21,21,23,23,24,24,26,26,27,27,28,28,29,29,30,30,31,31,33,33,34,34,35,35,36,36,37,37,43,43,44,44,45,45,46,46,47,47,48,48,52,52],"right_children":[2,4,6,8,10,12,14,16,18,20,22,24,-1,26,28,30,32,34,36,38,40,42,-1,44,46,-1,48,50,52,54,56,58,-1,60,62,64,66,68,-1,-1,-1,-1,-1,70,72,74,76,78,80,-1,-1,-1,82,-1,-1,-1,-1,-1,-1,-1,-1,-1,-1,-1,-1,-1,-1,-1,-1,-1,-1,-1,-1,-1,-1,-1,-1,-1,-1,-1,-1,-1,-1],"split_conditions":[1.34E-1,3.44E1,4.15E0,1.47E0,2.87E2,2.69E0,3.48E0,3.28E0,1.06E1,3.55E1,2.47E0,8.3E0,-3.74623E-1,4.35E1,5.77E0,2.18E1,1.28E1,1.804E1,3.99E0,9.9E-2,1.28E1,3.59E0,-3.3372456E-1,2.77E0,1.19E1,-3.824816E-1,3.43E0,6.3E0,3.5E1,1.47E1,3.13E1,5E0,-3.78791E-1,1.23E0,2.93E0,1.31E1,1.28E1,9E-2,-4.4692177E-1,-5.8605343E-1,-3.4819373E-1,-7.634967E-1,-2.4301912E-1,2.72E1,1.16E0,3.19E0,3.25E2,1.35E1,1.52E1,-3.9259538E-1,-3.6418238E-1,-3.824372E-1,9.4E0,-1.5749082E-1,-5.0291187E-1,-4.7188005E-1,3.719259E-1,-4.5301074E-1,1.503597E-1,-5.330935E-1,4.2313108E-1,-5.2759796E-1,-3.2539853E-1,-3.5281318E-1,-7.002202E-1,-4.780896E-1,-3.7196264E-1,3.4691986E-1,-6.0132325E-1,-3.014454E-1,3.4413964E-1,-5.3334594E-1,3.7501585E-1,2.8617674E-2,-4.0978652E-1,-7.074474E-2,3.847212E-1,-3.8271526E-1,3.0780977E-1,1.104093E0,-3.05624E-1,4.1104218E-1,-2.9394853E-1],"split_indices":[16,5,1,15,8,14,10,1,2,3,14,2,0,3,1,7,2,10,1,16,2,1,0,1,2,0,10,0,6,7,5,0,0,14,14,7,2,13,0,0,0,0,0,7,14,1,8,7,2,0,0,0,0,0,0,0,0,0,0,0,0,0,0,0,0,0,0,0,0,0,0,0,0,0,0,0,0,0,0,0,0,0,0],"split_type":[0,0,0,0,0,0,0,0,0,0,0,0,0,0,0,0,0,0,0,0,0,0,0,0,0,0,0,0,0,0,0,0,0,0,0,0,0,0,0,0,0,0,0,0,0,0,0,0,0,0,0,0,0,0,0,0,0,0,0,0,0,0,0,0,0,0,0,0,0,0,0,0,0,0,0,0,0,0,0,0,0,0,0],"sum_hessian":[1.693025E4,9.387694E3,7.5425547E3,7.124742E3,2.2629521E3,4.409465E3,3.13309E3,5.6274365E3,1.497306E3,2.2287834E3,3.416873E1,3.90616E3,5.0330472E2,7.8918604E2,2.343904E3,1.4694384E3,4.157998E3,1.3736519E3,1.2365417E2,2.1946719E3,3.4111485E1,2.1640793E1,1.2527941E1,1.001403E3,2.9047568E3,4.1161517E2,3.7757083E2,2.2556135E3,8.8290535E1,1.2727543E3,1.9668399E2,3.80522E3,3.5277817E2,1.304016E3,6.963584E1,4.9738758E1,7.3915405E1,2.1790447E3,1.5627268E1,1.4636451E1,1.9475035E1,1.9502544E1,2.138248E0,3.9999048E2,6.0141254E2,1.5835056E3,1.3212512E3,3.3405118E2,4.3519646E1,2.4196045E2,2.0136531E3,4.679952E1,4.1491016E1,4.496107E2,8.231436E2,3.337382E1,1.6331018E2,1.7487654E2,3.6303433E3,2.628004E1,1.277736E3,5.9509304E1,1.0126536E1,6.4118385E0,4.332692E1,2.7453089E1,4.646232E1,2.1708242E3,8.220404E0,2.5906247E2,1.4092802E2,2.9449652E1,5.719628E2,7.206609E2,8.628448E2,9.008724E2,4.2037888E2,1.2271588E2,2.113353E2,3.9655865E1,3.8637831E0,3.9522343E1,1.9686718E0],"tree_param":{"num_deleted":"0","num_feature":"21","num_nodes":"83","size_leaf_vector":"1"}},{"base_weights":[-3.3949014E-2,2.2023599E-1,-5.641683E-1,9.262407E-2,1.067493E0,-1.305423E-1,-9.425881E-1,1.6056858E-1,-3.4916824E-1,1.1041616E0,-1.3112829E0,4.84088E-1,-6.103464E-1,-6.230955E-1,-1.1545744E0,-6.0869896E-1,2.797667E-1,-6.500788E-1,1.1197335E0,-5.3508186E-1,-3.235293E-1,8.848994E-1,-3.606691E-1,-9.4488007E-1,1.0475198E0,-7.833411E-1,8.504802E-1,3.903447E-2,-1.2053361E0,4.5083827E-1,-1.479418E0,-1.0613325E0,3.5693723E-1,-4.8872635E-1,1.1342512E0,1.1137166E0,-1.310564E0,-1.1073202E0,1.1582354E0,1.1990016E0,-4.6722767E-1,-1.2492058E0,-1.7340992E-2,3.9214435E-1,-3.3385515E-1,-3.589034E-1,3.5809937E-1,-1.357897E0,-1.1610074E0,2.920645E-1,-4.4563445E-1,-4.985465E-1,-3.792475E-1,2.2125576E-1,-4.246659E-1,1.3382408E-1,-2.4307612E-1,3.4345624E-1,-3.4421608E-1,-4.1716322E-1,3.6754575E-1,-4.5283428E-1,-3.4418654E-1,-3.7847835E-1,1.18985556E-1,5.7666755E-1,-4.036987E-1,4.0584046E-1,-3.478335E-1,-3.576341E-1,-4.4668815E-1,1.6170473E-1,-3.7406695E-1,-4.7388557E-1,-3.6947706E-1,-3.4557214E-1,-4.1403803E-1],"categories":[],"categories_nodes":[],"categories_segments":[],"categories_sizes":[],"default_left":[0,0,0,1,0,0,0,0,0,0,0,0,0,1,0,0,0,0,0,0,0,0,0,0,1,0,0,0,0,0,0,0,0,0,1,0,0,0,0,0,0,1,0,0,0,0,0,0,0,0,0,0,0,0,0,0,0,0,0,0,0,0,0,0,0,0,0,0,0,0,0,0,0,0,0,0,0],"id":4,"left_children":[1,3,5,7,9,11,13,15,-1,17,19,21,23,25,27,29,31,-1,33,-1,-1,35,-1,37,39,41,43,45,47,49,51,53,55,-1,57,59,61,63,65,67,-1,69,71,-1,-1,-1,-1,73,75,-1,-1,-1,-1,-1,-1,-1,-1,-1,-1,-1,-1,-1,-1,-1,-1,-1,-1,-1,-1,-1,-1,-1,-1,-1,-1,-1,-1],"loss_changes":[2.0084751E3,1.0890497E3,7.923026E2,7.4771423E2,1.1645984E2,6.6429004E2,1.7392163E2,7.619437E2,0E0,6.859717E1,3.2824707E-1,6.686168E2,7.025294E2,2.4404001E2,9.389404E1,1.0292155E3,7.4488684E2,0E0,5.3470093E1,0E0,0E0,4.0262604E2,0E0,3.610393E2,8.58624E1,3.3188422E2,9.251841E1,9.293614E1,8.471436E0,5.1122913E2,2.1937012E1,2.5061719E2,7.082031E2,0E0,3.2457397E1,2.0367133E2,7.307129E-1,2.2743018E2,1.4795753E2,7.4740875E1,0E0,6.1412964E0,2.4198045E2,0E0,0E0,0E0,0E0,7.2573853E0,7.194824E-1,0E0,0E0,0E0,0E0,0E0,0E0,0E0,0E0,0E0,0E0,0E0,0E0,0E0,0E0,0E0,0E0,0E0,0E0,0E0,0E0,0E0,0E0,0E0,0E0,0E0,0E0,0E0,0E0],"parents":[2147483647,0,0,1,1,2,2,3,3,4,4,5,5,6,6,7,7,9,9,10,10,11,11,12,12,13,13,14,14,15,15,16,16,18,18,21,21,23,23,24,24,25,25,26,26,27,27,28,28,29,29,30,30,31,31,32,32,34,34,35,35,36,36,37,37,38,38,39,39,41,41,42,42,47,47,48,48],"right_children":[2,4,6,8,10,12,14,16,-1,18,20,22,24,26,28,30,32,-1,34,-1,-1,36,-1,38,40,42,44,46,48,50,52,54,56,-1,58,60,62,64,66,68,-1,70,72,-1,-1,-1,-1,74,76,-1,-1,-1,-1,-1,-1,-1,-1,-1,-1,-1,-1,-1,-1,-1,-1,-1,-1,-1,-1,-1,-1,-1,-1,-1,-1,-1,-1],"split_conditions":[3.59E1,3.86E1,1.3E0,2.93E0,8.6E-1,1.71E2,7.7E0,6.7E-1,-3.4916824E-1,9.8E-1,9.1E-2,1.33E1,4.86E2,5.63E0,8.04E1,9.7E0,1.31E1,-6.500788E-1,3.25E1,-5.3508186E-1,-3.235293E-1,1.11E1,-3.606691E-1,1.059E2,1.51E1,1.46E1,1.24E1,2.76E1,1.32E-1,3.19E1,1.34E-1,1.17E1,1.2E0,-4.8872635E-1,2.83E-1,2E-2,1.07E-1,4.81E1,1.22E1,1.24E1,-4.6722767E-1,5E0,1.52E1,3.9214435E-1,-3.3385515E-1,-3.589034E-1,3.5809937E-1,2.05E0,1.021E2,2.920645E-1,-4.4563445E-1,-4.985465E-1,-3.792475E-1,2.2125576E-1,-4.246659E-1,1.3382408E-1,-2.4307612E-1,3.4345624E-1,-3.4421608E-1,-4.1716322E-1,3.6754575E-1,-4.5283428E-1,-3.4418654E-1,-3.7847835E-1,1.18985556E-1,5.7666755E-1,-4.036987E-1,4.0584046E-1,-3.478335E-1,-3.576341E-1,-4.4668815E-1,1.6170473E-1,-3.7406695E-1,-4.7388557E-1,-3.6947706E-1,-3.4557214E-1,-4.1403803E-1],"split_indices":[3,5,14,14,15,8,0,14,0,10,16,2,8,10,4,9,7,0,6,0,0,9,0,4,17,2,2,5,16,6,16,7,11,0,16,13,16,3,7,2,0,17,2,0,0,0,0,14,4,0,0,0,0,0,0,0,0,0,0,0,0,0,0,0,0,0,0,0,0,0,0,0,0,0,0,0,0],"split_type":[0,0,0,0,0,0,0,0,0,0,0,0,0,0,0,0,0,0,0,0,0,0,0,0,0,0,0,0,0,0,0,0,0,0,0,0,0,0,0,0,0,0,0,0,0,0,0,0,0,0,0,0,0,0,0,0,0,0,0,0,0,0,0,0,0,0,0,0,0,0,0,0,0,0,0,0,0],"sum_hessian":[1.4900643E4,1.0072508E4,4.8281353E3,8.754964E3,1.3175435E3,2.2505762E3,2.577559E3,8.306665E3,4.4829938E2,1.2980697E3,1.9473827E1,9.8665704E2,1.2639192E3,1.0296595E3,1.5478995E3,1.113886E3,7.192779E3,5.4955535E0,1.2925741E3,4.2312384E0,1.5242589E1,7.975639E2,1.8909314E2,1.0520588E3,2.118604E2,9.290927E2,1.0056682E2,6.3152927E1,1.4847466E3,5.0268024E2,6.1120575E2,3.9067767E2,6.802101E3,6.206524E0,1.2863676E3,7.227315E2,7.4832344E1,9.7706586E2,7.499295E1,2.007275E2,1.1132901E1,5.7733765E2,3.5175507E2,8.186043E1,1.8706387E1,3.0492167E1,3.2660763E1,3.2761145E2,1.1571351E3,3.9621677E2,1.06463455E2,3.272152E2,2.839905E2,6.409574E1,3.2658194E2,6.3200327E3,4.8206824E2,1.2809133E3,5.4541984E0,3.030134E1,6.924302E2,3.0020304E1,4.481204E1,8.8630927E2,9.07566E1,5.763857E1,1.7354382E1,1.8883925E2,1.1888253E1,4.7112262E2,1.0621503E2,2.4256073E2,1.09194336E2,1.147213E2,2.1289014E2,1.1170015E3,4.0133686E1],"tree_param":{"num_deleted":"0","num_feature":"21","num_nodes":"77","size_leaf_vector":"1"}},{"base_weights":[-3.6628284E-2,2.4075206E-1,-4.1737336E-1,1.22205794E-1,1.0149537E0,-1.7118865E-1,-8.5035545E-1,-4.8249576E-2,7.744407E-1,1.0718116E0,-4.2430013E-1,-5.2090123E-2,-1.049649E0,-2.8446388E-1,-1.0810249E0,-6.065092E-1,2.4242389E-1,9.7956306E-1,-9.1262925E-1,-2.5436807E0,1.0993805E0,3.348246E-1,-3.4602132E0,1.8904051E-1,-4.2209616E-1,9.7188276E-1,-3.7022305E-1,-3.4525293E-1,4.0326253E-1,-3.362764E-1,-1.4554335E-1,-9.6212363E-1,8.318746E-1,-1.5483652E0,3.4582007E-1,-8.2619953E-1,1.1587588E0,-1.6436764E0,6.68229E-1,-5.047371E-1,-1.1843394E0,1.1106335E0,-2.2297213E0,-1.4895222E0,-6.0338306E-1,-3.113796E-1,6.123916E-1,-1.0519462E0,-1.6656462E-2,-2.741812E-1,3.5829884E-1,-3.741393E-1,7.863015E-1,-3.428685E-1,1.0026679E0,-4.8588446E-1,-1.0726316E-1,3.0237445E-1,-6.100548E-1,-5.4130924E-1,-3.6677203E-1,2.3454106E-1,-2.6945557E-2,-4.9721712E-1,3.3809847E-1,3.6666098E-1,-4.2781863E-1,-5.464983E-1,-3.317721E-1,4.0418133E-1,-4.2598188E-1,3.3667785E-1,-6.354509E-1,-7.9570615E-1,-2.254952E-1,-2.5199574E-1,3.5308543E-1,-3.514966E-1,2.3282349E-1,-3.6888582E-1,3.5632178E-1,2.4276444E-1,-1.3302764E-1,3.4610876E-1,-3.585834E-1,-2.2042382E-1,3.428977E-1],"categories":[],"categories_nodes":[],"categories_segments":[],"categories_sizes":[],"default_left":[0,0,0,0,0,0,0,0,1,0,0,0,0,0,0,0,0,1,0,0,0,0,1,0,0,0,0,0,1,0,1,0,1,0,0,0,0,0,0,0,0,0,0,0,0,0,1,1,0,0,0,0,0,0,0,0,0,0,0,0,0,0,0,0,0,0,0,0,0,0,0,0,0,0,0,0,0,0,0,0,0,0,0,0,0,0,0],"id":5,"left_children":[1,3,5,7,9,11,13,15,17,19,21,23,25,27,29,31,33,35,37,39,41,-1,43,45,47,49,-1,-1,51,-1,53,55,57,59,61,63,65,67,69,-1,-1,71,73,-1,-1,75,77,79,81,-1,-1,-1,83,-1,85,-1,-1,-1,-1,-1,-1,-1,-1,-1,-1,-1,-1,-1,-1,-1,-1,-1,-1,-1,-1,-1,-1,-1,-1,-1,-1,-1,-1,-1,-1,-1,-1],"loss_changes":[1.3970726E3,7.022708E2,5.941522E2,7.380329E2,8.360571E1,3.719499E2,2.634635E2,8.5428094E2,4.7686237E2,1.00256714E2,1.8779778E2,2.7953384E2,1.5944846E2,3.4992972E2,5.340161E1,9.22818E2,6.415763E2,3.9792834E2,1.7400958E2,2.670639E0,3.8855347E1,0E0,1.9413116E1,4.020863E2,3.1565405E2,1.6212597E1,0E0,0E0,2.0814792E2,0E0,6.968866E1,5.740936E2,1.8255466E2,1.3570709E1,6.218884E2,1.8261697E2,1.8483337E2,7.80542E0,7.00057E1,0E0,0E0,3.873169E1,2.576275E-1,0E0,0E0,6.854941E2,3.0110904E2,1.9409344E2,2.6578198E2,0E0,0E0,0E0,1.954643E2,0E0,7.752884E0,0E0,0E0,0E0,0E0,0E0,0E0,0E0,0E0,0E0,0E0,0E0,0E0,0E0,0E0,0E0,0E0,0E0,0E0,0E0,0E0,0E0,0E0,0E0,0E0,0E0,0E0,0E0,0E0,0E0,0E0,0E0,0E0],"parents":[2147483647,0,0,1,1,2,2,3,3,4,4,5,5,6,6,7,7,8,8,9,9,10,10,11,11,12,12,13,13,14,14,15,15,16,16,17,17,18,18,19,19,20,20,22,22,23,23,24,24,25,25,28,28,30,30,31,31,32,32,33,33,34,34,35,35,36,36,37,37,38,38,41,41,42,42,45,45,46,46,47,47,48,48,52,52,54,54],"right_children":[2,4,6,8,10,12,14,16,18,20,22,24,26,28,30,32,34,36,38,40,42,-1,44,46,48,50,-1,-1,52,-1,54,56,58,60,62,64,66,68,70,-1,-1,72,74,-1,-1,76,78,80,82,-1,-1,-1,84,-1,86,-1,-1,-1,-1,-1,-1,-1,-1,-1,-1,-1,-1,-1,-1,-1,-1,-1,-1,-1,-1,-1,-1,-1,-1,-1,-1,-1,-1,-1,-1,-1,-1],"split_conditions":[1.34E-1,1.127E2,4.15E0,1.47E0,5.82E0,9.86E0,3.48E0,3.09E1,1.67E0,1.03E1,1.1E1,9.47E1,1.2E1,4.35E1,5.77E0,2.18E1,1.08E2,1.59E0,3.09E1,4.03E1,3.23E1,3.348246E-1,5.1E-1,1.03E1,1.003E2,1.86E1,-3.7022305E-1,-3.4525293E-1,1.1E-1,-3.362764E-1,2.99E0,6.1E-2,1.03E1,3.57E1,2.08E2,1.097E2,3.68E0,2.93E0,9.1E0,-5.047371E-1,-1.1843394E0,1.1E0,2.91E0,-1.4895222E0,-6.0338306E-1,9.39E1,8.3E-1,4.5E1,2.09E0,-2.741812E-1,3.5829884E-1,-3.741393E-1,1.9E-1,-3.428685E-1,3.5E1,-4.8588446E-1,-1.0726316E-1,3.0237445E-1,-6.100548E-1,-5.4130924E-1,-3.6677203E-1,2.3454106E-1,-2.6945557E-2,-4.9721712E-1,3.3809847E-1,3.6666098E-1,-4.2781863E-1,-5.464983E-1,-3.317721E-1,4.0418133E-1,-4.2598188E-1,3.3667785E-1,-6.354509E-1,-7.9570615E-1,-2.254952E-1,-2.5199574E-1,3.5308543E-1,-3.514966E-1,2.3282349E-1,-3.6888582E-1,3.5632178E-1,2.4276444E-1,-1.3302764E-1,3.4610876E-1,-3.585834E-1,-2.2042382E-1,3.428977E-1],"split_indices":[16,4,1,15,10,10,10,3,15,9,17,4,7,3,1,7,8,10,17,5,3,0,15,9,4,0,0,0,12,0,14,16,9,3,8,4,1,14,0,0,0,18,1,0,0,4,14,17,10,0,0,0,12,0,6,0,0,0,0,0,0,0,0,0,0,0,0,0,0,0,0,0,0,0,0,0,0,0,0,0,0,0,0,0,0,0,0],"split_type":[0,0,0,0,0,0,0,0,0,0,0,0,0,0,0,0,0,0,0,0,0,0,0,0,0,0,0,0,0,0,0,0,0,0,0,0,0,0,0,0,0,0,0,0,0,0,0,0,0,0,0,0,0,0,0,0,0,0,0,0,0,0,0,0,0,0,0,0,0,0,0,0,0,0,0,0,0,0,0,0,0,0,0,0,0,0,0],"sum_hessian":[1.3226499E4,7.652135E3,5.5743643E3,6.637027E3,1.015108E3,3.5546558E3,2.0197087E3,5.2626177E3,1.374409E3,9.767757E2,3.8332237E1,3.1311982E3,4.2345746E2,5.855172E2,1.4341915E3,1.8015408E3,3.4610771E3,1.2257906E3,1.4861838E2,6.7011085E0,9.700746E2,2.5849113E1,1.2483125E1,1.8960459E3,1.2351523E3,3.5045918E1,3.8841153E2,2.5880646E2,3.267108E2,1.3753378E3,5.8853725E1,1.4446967E3,3.5684402E2,1.8816382E2,3.2729133E3,1.1033454E2,1.115456E3,1.0159662E2,4.702176E1,5.5160418E0,1.1850666E0,9.674707E2,2.603877E0,4.9330115E0,7.5501137E0,8.690518E2,1.0269941E3,4.8308533E2,7.52067E2,3.369761E0,3.1676157E1,6.1117775E1,2.65593E2,3.1498413E1,2.7355314E1,6.912602E2,7.534365E2,3.3680038E2,2.004366E1,1.0282681E2,8.533701E1,1.6354121E3,1.6375012E3,7.750387E1,3.2830677E1,1.0892477E3,2.620843E1,7.45391E1,2.705752E1,3.5750893E1,1.12708645E1,9.646497E2,2.8210125E0,1.4070748E0,1.1968021E0,6.416091E2,2.274428E2,8.5790634E1,9.412035E2,4.4799692E2,3.5088387E1,2.559206E2,4.961464E2,2.2440501E2,4.118798E1,1.7277164E0,2.5627598E1],"tree_param":{"num_deleted":"0","num_feature":"21","num_nodes":"87","size_leaf_vector":"1"}},{"base_weights":[-3.3988904E-2,1.4712074E-1,-4.8251495E-1,9.360874E-1,6.262104E-2,-7.8749165E-2,-8.63196E-1,1.0084344E0,-3.9647514E-1,1.0891851E-1,-1.1982124E0,1.02579795E-1,-1.1808027E0,-1.0463203E0,-4.6910983E-1,1.0383458E0,-3.30175E-1,-3.8490865E-1,2.347876E-1,1.0421783E0,-1.5537394E0,6.8682843E-1,-3.7136272E-1,-1.3710095E0,-3.3252034E-1,5.983007E-4,-1.1568451E0,2.0496441E-1,-9.514527E-1,-3.6882597E-1,1.0566988E0,-7.072845E-1,5.9461987E-1,-1.0791436E0,2.8638592E-1,-3.298182E-1,3.6536777E-1,-1.8060641E0,-3.718236E-1,8.745269E-1,-3.3325526E-1,-8.1415516E-1,8.780954E-1,-4.5709518E-1,-3.2470632E-1,-3.434817E-1,1.0193245E0,-1.3051665E0,-3.291886E-1,-3.6011738E-1,6.688448E-1,7.718588E-1,-3.271751E-1,3.1944907E-1,-4.3144432E-1,-3.7601426E-1,-3.8627505E-2,2.5880814E-1,-4.626284E-1,-4.8859704E-1,3.853989E-1,-2.6676142E-1,1.057322E-1,-4.6943513E-1,-5.957325E-1,-3.5555914E-1,3.0063277E-1,-6.70872E-2,-3.6346495E-1,3.3843076E-1,-3.3751976E-1,3.4559217E-1,-2.553405E-1,-4.188002E-1,-3.3885285E-1,2.8724855E-1,-3.550641E-1,3.2373655E-1,-2.5900725E-1],"categories":[],"categories_nodes":[],"categories_segments":[],"categories_sizes":[],"default_left":[0,0,0,0,0,0,0,0,0,0,0,0,0,0,0,1,0,0,0,0,0,0,0,0,0,0,0,1,0,0,0,0,1,0,1,0,0,0,0,0,0,0,0,0,0,0,0,0,0,0,0,0,0,0,0,0,0,0,0,0,0,0,0,0,0,0,0,0,0,0,0,0,0,0,0,0,0,0,0],"id":6,"left_children":[1,3,5,7,9,11,13,15,-1,17,19,21,23,25,27,29,-1,31,33,35,37,39,41,43,-1,45,47,49,51,-1,53,55,57,59,61,-1,-1,63,-1,65,-1,67,69,-1,-1,-1,71,73,-1,-1,75,77,-1,-1,-1,-1,-1,-1,-1,-1,-1,-1,-1,-1,-1,-1,-1,-1,-1,-1,-1,-1,-1,-1,-1,-1,-1,-1,-1],"loss_changes":[9.419061E2,5.506199E2,5.1257983E2,1.3184021E2,4.3571667E2,3.2378268E2,1.23390625E2,5.001831E1,0E0,4.4754303E2,2.1220575E2,3.856255E2,1.6328735E0,1.3551868E2,1.778541E2,3.311566E1,0E0,4.6225397E2,3.8926868E2,1.5189774E1,1.5890503E1,2.1141425E2,4.26193E2,9.4573975E-1,0E0,1.3284572E2,7.9244385E0,1.4991821E2,7.72511E1,0E0,1.6925781E1,3.47628E2,2.090804E2,2.8395697E2,4.2904938E2,0E0,0E0,2.2956543E0,0E0,1.4973312E2,0E0,1.3310394E2,1.0228659E2,0E0,0E0,0E0,1.5930138E1,3.1811523E0,0E0,0E0,9.3427734E1,1.3187367E1,0E0,0E0,0E0,0E0,0E0,0E0,0E0,0E0,0E0,0E0,0E0,0E0,0E0,0E0,0E0,0E0,0E0,0E0,0E0,0E0,0E0,0E0,0E0,0E0,0E0,0E0,0E0],"parents":[2147483647,0,0,1,1,2,2,3,3,4,4,5,5,6,6,7,7,9,9,10,10,11,11,12,12,13,13,14,14,15,15,17,17,18,18,19,19,20,20,21,21,22,22,23,23,25,25,26,26,27,27,28,28,30,30,31,31,32,32,33,33,34,34,37,37,39,39,41,41,42,42,46,46,47,47,50,50,51,51],"right_children":[2,4,6,8,10,12,14,16,-1,18,20,22,24,26,28,30,-1,32,34,36,38,40,42,44,-1,46,48,50,52,-1,54,56,58,60,62,-1,-1,64,-1,66,-1,68,70,-1,-1,-1,72,74,-1,-1,76,78,-1,-1,-1,-1,-1,-1,-1,-1,-1,-1,-1,-1,-1,-1,-1,-1,-1,-1,-1,-1,-1,-1,-1,-1,-1,-1,-1],"split_conditions":[3.59E1,1.69E0,1.3E0,2.17E2,1.6E0,1.11E1,1.46E1,8.6E0,-3.9647514E-1,2.91E0,1E1,1.71E2,8.3E-2,3.5E-1,6.3E0,3.09E1,-3.30175E-1,2.17E1,3.4E-2,8.4E0,1.34E-1,1.33E1,1.27E0,1.28E1,-3.3252034E-1,3.4E-1,1.32E-1,1.3E-1,8.04E1,-3.6882597E-1,5.82E0,1.53E0,1.03E1,1.24E1,1.31E1,-3.298182E-1,3.6536777E-1,3.09E1,-3.718236E-1,8.96E1,-3.3325526E-1,4.9E-1,4.55E0,-4.5709518E-1,-3.2470632E-1,-3.434817E-1,1.24E1,2.86E0,-3.291886E-1,-3.6011738E-1,3.4E1,9.4E0,-3.271751E-1,3.1944907E-1,-4.3144432E-1,-3.7601426E-1,-3.8627505E-2,2.5880814E-1,-4.626284E-1,-4.8859704E-1,3.853989E-1,-2.6676142E-1,1.057322E-1,-4.6943513E-1,-5.957325E-1,-3.5555914E-1,3.0063277E-1,-6.70872E-2,-3.6346495E-1,3.3843076E-1,-3.3751976E-1,3.4559217E-1,-2.553405E-1,-4.188002E-1,-3.3885285E-1,2.8724855E-1,-3.550641E-1,3.2373655E-1,-2.5900725E-1],"split_indices":[3,1,14,8,11,9,2,0,0,1,8,8,16,15,0,6,0,7,16,0,16,2,15,2,0,15,16,12,4,0,10,14,9,2,7,0,0,3,0,4,0,15,1,0,0,0,2,14,0,0,6,0,0,0,0,0,0,0,0,0,0,0,0,0,0,0,0,0,0,0,0,0,0,0,0,0,0,0,0],"split_type":[0,0,0,0,0,0,0,0,0,0,0,0,0,0,0,0,0,0,0,0,0,0,0,0,0,0,0,0,0,0,0,0,0,0,0,0,0,0,0,0,0,0,0,0,0,0,0,0,0,0,0,0,0,0,0,0,0,0,0,0,0,0,0,0,0,0,0,0,0,0,0,0,0,0,0,0,0,0,0],"sum_hessian":[1.159333E4,8.25908E3,3.3342495E3,7.9801373E2,7.4610664E3,1.6186503E3,1.7155991E3,7.737716E2,2.424215E1,7.197683E3,2.633834E2,1.3907301E3,2.2792012E2,1.1701826E3,5.454165E2,7.6345154E2,1.0320089E1,1.4615333E3,5.73615E3,3.5807484E1,2.2757593E2,6.2267883E2,7.680513E2,5.789295E1,1.7002718E2,1.1183626E2,1.0583464E3,2.2773367E2,3.176828E2,5.5992417E0,7.578523E2,1.0998395E3,3.6169385E2,2.159955E2,5.5201543E3,2.3165917E0,3.3490894E1,1.23606026E2,1.03969894E2,5.642755E2,5.8403362E1,5.6734106E2,2.0071024E2,3.506965E1,2.2823298E1,5.2583393E1,5.925287E1,2.9719727E2,7.611492E2,5.6121685E1,1.7161198E2,2.3392296E1,2.942905E2,7.559616E2,1.8906724E0,5.651773E2,5.3466223E2,3.219038E2,3.9790054E1,1.7550656E2,4.048893E1,2.9300555E2,5.2271484E3,5.690816E1,6.669787E1,3.2429806E1,5.318457E2,2.2884239E2,3.3849866E2,1.788282E2,2.1882046E1,5.5687725E1,3.565144E0,1.9131764E2,1.0587963E2,1.4889363E2,2.2718355E1,1.9978363E1,3.4139323E0],"tree_param":{"num_deleted":"0","num_feature":"21","num_nodes":"79","size_leaf_vector":"1"}},{"base_weights":[-3.3770148E-2,1.7669222E-1,-3.485725E-1,2.333437E-1,-3.326207E-1,1.5117079E-1,-5.320061E-1,5.237951E-1,2.7080568E-2,-6.3228375E-1,6.133589E-1,-9.569145E-1,-1.8981256E-1,-3.8392553E-1,6.638575E-1,-2.1088357E-1,9.528763E-1,7.5720423E-1,-9.64539E-1,9.2320883E-1,-8.069097E-1,-1.1277068E0,5.390177E-2,-2.50667E-2,-1.1411492E0,9.663855E-1,-1.4858018E0,7.230843E-1,-5.039381E-1,-7.746662E-1,1.00453794E-1,-4.46973E-1,1.0317503E0,-3.1273407E-1,9.8704255E-1,-3.5823685E-1,6.171565E-1,1.0077763E0,-5.5187625E-1,3.4005916E-1,-1.326835E0,-2.5499764E-1,-1.1679208E0,9.991295E-1,-7.699933E-1,-2.4598002E-1,7.800288E-1,-3.799601E-1,-3.2534862E-1,-4.714416E-1,3.3640462E-1,-4.1123268E-1,-7.8976184E-1,-5.5870276E-2,2.4785365E-1,2.8405797E-1,-2.9355234E-1,9.961575E-2,-2.9084963E-1,3.2543394E-1,-4.1611037E-1,3.4023944E-1,-2.6337844E-1,3.347401E-1,-3.939089E-1,3.227467E-1,-4.7876647E-1,-4.4697276E-1,-3.6151183E-1,-3.130973E-1,3.181511E-1,-3.8182217E-1,-3.2279274E-1,3.730222E-1,-2.969896E-1,-3.2463032E-1,1.3686758E-1,7.945279E-2,-2.9634872E-1,-3.4266487E-1,3.554479E-1],"categories":[],"categories_nodes":[],"categories_segments":[],"categories_sizes":[],"default_left":[0,1,0,0,0,0,0,0,0,0,0,0,0,0,0,0,0,0,1,0,0,0,0,0,0,0,0,1,0,0,0,0,0,0,0,0,0,0,0,0,0,0,0,0,0,0,0,0,0,0,0,0,0,0,0,0,0,0,0,0,0,0,0,0,0,0,0,0,0,0,0,0,0,0,0,0,0,0,0,0,0],"id":7,"left_children":[1,3,5,7,-1,9,11,13,15,17,19,21,23,25,27,29,31,33,35,37,39,41,43,45,47,49,51,53,-1,55,57,-1,59,-1,61,-1,63,65,-1,-1,67,69,71,73,75,77,79,-1,-1,-1,-1,-1,-1,-1,-1,-1,-1,-1,-1,-1,-1,-1,-1,-1,-1,-1,-1,-1,-1,-1,-1,-1,-1,-1,-1,-1,-1,-1,-1,-1,-1],"loss_changes":[6.91497E2,4.5577512E2,3.8343112E2,3.589652E2,0E0,4.0725235E2,4.4463672E2,3.1659436E2,7.7234515E2,1.9343034E2,3.1196762E2,2.3561768E2,2.6575372E2,4.9725446E2,3.0047235E2,4.8962436E2,1.396549E2,3.4577923E1,1.2321896E2,1.3760541E2,1.2982335E2,4.0667847E1,1.55101E2,2.574634E2,4.0444946E-1,6.08891E1,2.064795E1,1.9734692E2,0E0,3.4916064E2,4.4578296E2,0E0,9.065265E1,0E0,2.0866356E1,0E0,4.3248062E1,1.0171307E2,0E0,0E0,2.0613098E-1,5.577936E1,9.38208E0,4.6285965E1,4.1232433E1,4.3068436E2,2.4388806E2,0E0,0E0,0E0,0E0,0E0,0E0,0E0,0E0,0E0,0E0,0E0,0E0,0E0,0E0,0E0,0E0,0E0,0E0,0E0,0E0,0E0,0E0,0E0,0E0,0E0,0E0,0E0,0E0,0E0,0E0,0E0,0E0,0E0,0E0],"parents":[2147483647,0,0,1,1,2,2,3,3,5,5,6,6,7,7,8,8,9,9,10,10,11,11,12,12,13,13,14,14,15,15,16,16,17,17,18,18,19,19,20,20,21,21,22,22,23,23,24,24,25,25,26,26,27,27,29,29,30,30,32,32,34,34,36,36,37,37,40,40,41,41,42,42,43,43,44,44,45,45,46,46],"right_children":[2,4,6,8,-1,10,12,14,16,18,20,22,24,26,28,30,32,34,36,38,40,42,44,46,48,50,52,54,-1,56,58,-1,60,-1,62,-1,64,66,-1,-1,68,70,72,74,76,78,80,-1,-1,-1,-1,-1,-1,-1,-1,-1,-1,-1,-1,-1,-1,-1,-1,-1,-1,-1,-1,-1,-1,-1,-1,-1,-1,-1,-1,-1,-1,-1,-1,-1,-1],"split_conditions":[1.34E-1,2.93E0,2.84E1,1.74E2,-3.326207E-1,2.77E0,3.05E1,5.3E1,2.53E0,1.58E0,6.8E-1,5.28E0,6E-2,1.1E-1,2.83E1,3.14E1,5E-2,3.34E1,2.72E1,3.45E0,1E1,1.2E1,5.32E0,3.25E2,3.59E1,2.07E1,3.56E1,1E-2,-5.039381E-1,6.56E1,3.31E1,-4.46973E-1,3.87E0,-3.1273407E-1,2.69E0,-3.5823685E-1,2.83E1,1.84E1,-5.5187625E-1,3.4005916E-1,8.4E0,4.61E2,3.59E1,3.31E0,3.52E1,3.33E1,3.39E1,-3.799601E-1,-3.2534862E-1,-4.714416E-1,3.3640462E-1,-4.1123268E-1,-7.8976184E-1,-5.5870276E-2,2.4785365E-1,2.8405797E-1,-2.9355234E-1,9.961575E-2,-2.9084963E-1,3.2543394E-1,-4.1611037E-1,3.4023944E-1,-2.6337844E-1,3.347401E-1,-3.939089E-1,3.227467E-1,-4.7876647E-1,-4.4697276E-1,-3.6151183E-1,-3.130973E-1,3.181511E-1,-3.8182217E-1,-3.2279274E-1,3.730222E-1,-2.969896E-1,-3.2463032E-1,1.3686758E-1,7.945279E-2,-2.9634872E-1,-3.4266487E-1,3.554479E-1],"split_indices":[16,14,3,8,0,1,5,8,14,1,15,1,13,15,17,3,16,6,7,1,8,7,1,8,3,7,5,12,0,4,6,0,1,0,14,0,5,7,0,0,0,8,3,10,6,6,6,0,0,0,0,0,0,0,0,0,0,0,0,0,0,0,0,0,0,0,0,0,0,0,0,0,0,0,0,0,0,0,0,0,0],"split_type":[0,0,0,0,0,0,0,0,0,0,0,0,0,0,0,0,0,0,0,0,0,0,0,0,0,0,0,0,0,0,0,0,0,0,0,0,0,0,0,0,0,0,0,0,0,0,0,0,0,0,0,0,0,0,0,0,0,0,0,0,0,0,0,0,0,0,0,0,0,0,0,0,0,0,0,0,0,0,0,0,0],"sum_hessian":[1.0435124E4,6.2542554E3,4.1808687E3,5.991036E3,2.6321896E2,1.1226143E3,3.0582544E3,2.4871677E3,3.5038687E3,4.164026E2,7.062116E2,1.3634436E3,1.6948109E3,3.3223932E2,2.1549282E3,2.7880164E3,7.1585223E2,8.010892E1,3.3629367E2,5.800222E2,1.2618937E2,1.1662695E3,1.9717401E2,1.4455133E3,2.4929759E2,1.4934508E2,1.8289424E2,2.1024875E3,5.2440826E1,9.913501E2,1.7966661E3,2.18313E1,6.9402094E2,8.671881E0,7.1437035E1,2.9388165E2,4.241201E1,5.634118E2,1.661044E1,2.641699E1,9.977238E1,5.16973E1,1.1145723E3,9.172652E1,1.054475E2,1.1348201E3,3.1069327E2,7.0939926E1,1.7835767E2,8.068302E0,1.4127676E2,1.6821628E2,1.4677963E1,2.1401523E2,1.8884723E3,1.045698E2,8.867803E2,1.4775334E3,3.1913278E2,6.796714E2,1.4349594E1,6.657796E1,4.8590784E0,3.404004E1,8.371973E0,5.496341E2,1.3777718E1,3.785496E1,6.1917416E1,3.2449844E1,1.9247456E1,5.148209E2,5.9975134E2,8.20277E1,9.6988125E0,8.414717E1,2.1300327E1,6.7243646E2,4.6238358E2,5.3729317E1,2.5696393E2],"tree_param":{"num_deleted":"0","num_feature":"21","num_nodes":"81","size_leaf_vector":"1"}},{"base_weights":[-3.1711455E-2,-9.753933E-2,8.309471E-1,-4.923093E-2,-3.2014704E-1,8.716456E-1,-4.076021E-1,-2.9466185E-1,9.9093854E-2,8.960378E-1,-1.3957415E0,-1.9821742E-1,-1.0296217E0,-1.8584143E-2,6.26486E-1,-4.1135633E-1,9.171291E-1,-2.6198342E-1,-6.437662E-1,-9.277874E-3,-6.317071E-1,3.251239E-1,-1.1236016E0,1.2620068E-1,-6.77852E-1,8.2190734E-1,-6.592443E-1,-3.5333216E-1,9.3376315E-1,-4.5269195E-2,2.3209216E-1,-3.2064682E-1,-3.868844E-2,-2.82556E-1,3.0468214E-1,-3.2983178E-1,-4.085753E-1,-2.6029074E-1,7.22519E-2,-3.1041859E-2,-5.1157326E-1,-2.3455188E-1,2.937227E-1,2.3698224E-1,-4.3991086E-1,1.458072E-1,3.0117333E-1],"categories":[],"categories_nodes":[],"categories_segments":[],"categories_sizes":[],"default_left":[0,1,0,1,0,0,0,0,0,0,0,0,0,0,1,0,0,0,0,0,0,1,1,0,0,1,0,0,0,0,0,0,0,0,0,0,0,0,0,0,0,0,0,0,0,0,0],"id":8,"left_children":[1,3,5,7,-1,9,-1,11,13,15,17,19,21,23,25,-1,27,-1,-1,29,31,33,35,37,39,41,43,-1,45,-1,-1,-1,-1,-1,-1,-1,-1,-1,-1,-1,-1,-1,-1,-1,-1,-1,-1],"loss_changes":[5.194254E2,3.9799854E2,5.8975067E1,2.947422E2,0E0,3.6496216E1,0E0,2.1597803E2,3.132335E2,3.1436096E1,9.375992E-1,2.2091232E2,4.5378815E1,3.9403177E2,2.318797E2,0E0,2.290979E1,0E0,0E0,2.0851424E2,1.7979044E2,2.1699224E1,4.0774536E-1,3.8585135E2,4.3847253E2,2.0233179E2,1.4389697E2,0E0,1.9032593E1,0E0,0E0,0E0,0E0,0E0,0E0,0E0,0E0,0E0,0E0,0E0,0E0,0E0,0E0,0E0,0E0,0E0,0E0],"parents":[2147483647,0,0,1,1,2,2,3,3,5,5,7,7,8,8,9,9,10,10,11,11,12,12,13,13,14,14,16,16,19,19,20,20,21,21,22,22,23,23,24,24,25,25,26,26,28,28],"right_children":[2,4,6,8,-1,10,-1,12,14,16,18,20,22,24,26,-1,28,-1,-1,30,32,34,36,38,40,42,44,-1,46,-1,-1,-1,-1,-1,-1,-1,-1,-1,-1,-1,-1,-1,-1,-1,-1,-1,-1],"split_conditions":[3.86E1,3.04E0,3.42E1,2.7E-2,-3.2014704E-1,2.69E0,-4.076021E-1,9.86E0,1.47E0,9.8E-1,1.14E1,4.12E0,1.2E1,3.41E2,1.67E0,-4.1135633E-1,3.25E1,-2.6198342E-1,-6.437662E-1,3.89E1,4.35E1,5.2E-1,3.7E0,1E-2,5.3E-2,1.59E0,9.1E0,-3.5333216E-1,1.03E1,-4.5269195E-2,2.3209216E-1,-3.2064682E-1,-3.868844E-2,-2.82556E-1,3.0468214E-1,-3.2983178E-1,-4.085753E-1,-2.6029074E-1,7.22519E-2,-3.1041859E-2,-5.1157326E-1,-2.3455188E-1,2.937227E-1,2.3698224E-1,-4.3991086E-1,1.458072E-1,3.0117333E-1],"split_indices":[5,14,3,16,0,14,0,10,15,10,9,1,7,8,15,0,6,0,0,3,3,12,17,12,16,10,9,0,9,0,0,0,0,0,0,0,0,0,0,0,0,0,0,0,0,0,0],"split_type":[0,0,0,0,0,0,0,0,0,0,0,0,0,0,0,0,0,0,0,0,0,0,0,0,0,0,0,0,0,0,0,0,0,0,0,0,0,0,0,0,0,0,0,0,0,0,0],"sum_hessian":[9.144482E3,8.49698E3,6.475019E2,8.094735E3,4.022461E2,6.3627734E2,1.1224583E1,3.0488535E3,5.0458813E3,6.301036E2,6.173726E0,2.6963035E3,3.5255014E2,4.1261665E3,9.1971454E2,5.2176404E0,6.248859E2,4.914799E0,1.258927E0,1.8785468E3,8.177566E2,2.2710615E1,3.2983954E2,3.3838357E3,7.42331E2,7.986817E2,1.2103286E2,4.372751E0,6.205132E2,1.5914772E3,2.870696E2,4.3682773E2,3.8092886E2,7.882626E0,1.4827989E1,3.04573E2,2.5266525E1,3.4927835E2,3.0345574E3,4.7684457E2,2.6548645E2,7.093058E1,7.277511E2,4.3303375E1,7.7729485E1,8.512262E1,5.3539056E2],"tree_param":{"num_deleted":"0","num_feature":"21","num_nodes":"47","size_leaf_vector":"1"}},{"base_weights":[-2.7163722E-2,9.50805E-2,-3.6514908E-1,2.0364012E-1,-3.213409E-1,-5.0419825E-1,4.954433E-1,2.7202523E-1,-1.3629143E0,-1.2579632E0,1.92218E-1,-2.665463E-1,-1.1513575E0,-3.4680048E-1,7.341301E-1,1.3469586E-1,8.387465E-1,-3.6952513E-1,-1.4622599E0,-7.97095E-2,-1.4914597E0,-1.0198468E0,5.194655E-1,-1.377622E0,-9.269017E-2,-3.2205728E-1,-1.3721781E0,1.0001526E0,-5.6090057E-1,2.277044E-1,-1.6520076E0,9.8807687E-1,-1.5700786E0,-3.9296103E-1,-1.7362542E0,-1.4372661E0,9.353193E-1,-1.6902224E0,-3.45599E-1,-1.3455988E0,3.270599E-1,-1.3172151E-1,9.18879E-1,-1.6615728E0,-3.2813704E-1,9.136882E-2,-8.361519E-1,-1.9938756E0,-1.2972455E0,-3.1708065E-1,1.0749112E0,8.069726E-1,-3.2296118E-1,9.671123E-2,-3.460896E-1,-3.6865473E-1,-6.047625E-1,3.1828532E-1,-6.327907E-1,-3.5973477E-1,-6.04729E-1,-3.0303898E-1,-5.473069E-1,-4.92362E-1,-2.8368023E-1,3.7469828E-1,-2.717759E-1,-5.84539E-1,-3.9049134E-1,-3.3289194E-1,-4.7853908E-1,-4.679386E-1,2.1143928E-1,3.1636566E-1,-4.4316578E-1,-7.1713984E-1,-4.3910164E-1,7.410215E-2,-3.2089514E-1,2.0609428E-1,-3.337661E-1,-3.5192168E-1,-7.0214415E-1,-4.1069582E-1,-3.1495008E-1,3.3637136E-1,-3.082122E-1,-1.7176348E-1,2.9289523E-1],"categories":[],"categories_nodes":[],"categories_segments":[],"categories_sizes":[],"default_left":[0,0,0,0,0,0,1,0,1,0,1,0,1,0,0,0,0,0,0,0,0,0,0,0,0,0,0,0,0,0,1,1,1,0,0,0,0,0,0,1,0,0,0,0,0,0,0,0,0,0,1,0,0,0,0,0,0,0,0,0,0,0,0,0,0,0,0,0,0,0,0,0,0,0,0,0,0,0,0,0,0,0,0,0,0,0,0,0,0],"id":9,"left_children":[1,3,5,7,9,11,13,15,17,19,21,23,25,-1,27,29,31,-1,33,35,37,39,41,43,45,-1,47,49,51,53,55,57,59,-1,61,63,65,67,-1,69,-1,71,73,75,-1,77,79,81,83,-1,85,87,-1,-1,-1,-1,-1,-1,-1,-1,-1,-1,-1,-1,-1,-1,-1,-1,-1,-1,-1,-1,-1,-1,-1,-1,-1,-1,-1,-1,-1,-1,-1,-1,-1,-1,-1,-1,-1],"loss_changes":[3.485136E2,2.8011218E2,2.6835788E2,5.268481E2,6.1661E2,2.9642307E2,1.2389336E2,3.6643127E2,8.795471E-1,1.24763E2,3.2914282E2,2.727094E2,7.4282837E0,0E0,9.473125E1,6.305652E2,3.319331E2,0E0,2.3903503E0,1.06252106E2,2.3610657E1,1.2276193E2,1.6996535E2,1.357901E1,1.6735101E2,0E0,3.533722E0,3.6064545E1,3.417595E1,4.7184586E2,2.6433167E1,1.9758911E2,6.510971E0,0E0,5.149231E-1,1.7534866E0,2.6640606E1,2.1222717E1,0E0,7.2570496E0,0E0,2.9871887E2,1.3317844E2,9.998688E0,0E0,1.7748099E2,1.0292943E2,7.450218E-1,6.946564E-1,0E0,2.2544647E1,3.7126255E0,0E0,0E0,0E0,0E0,0E0,0E0,0E0,0E0,0E0,0E0,0E0,0E0,0E0,0E0,0E0,0E0,0E0,0E0,0E0,0E0,0E0,0E0,0E0,0E0,0E0,0E0,0E0,0E0,0E0,0E0,0E0,0E0,0E0,0E0,0E0,0E0,0E0],"parents":[2147483647,0,0,1,1,2,2,3,3,4,4,5,5,6,6,7,7,8,8,9,9,10,10,11,11,12,12,14,14,15,15,16,16,18,18,19,19,20,20,21,21,22,22,23,23,24,24,26,26,27,27,28,28,29,29,30,30,31,31,32,32,34,34,35,35,36,36,37,37,39,39,41,41,42,42,43,43,45,45,46,46,47,47,48,48,50,50,51,51],"right_children":[2,4,6,8,10,12,14,16,18,20,22,24,26,-1,28,30,32,-1,34,36,38,40,42,44,46,-1,48,50,52,54,56,58,60,-1,62,64,66,68,-1,70,-1,72,74,76,-1,78,80,82,84,-1,86,88,-1,-1,-1,-1,-1,-1,-1,-1,-1,-1,-1,-1,-1,-1,-1,-1,-1,-1,-1,-1,-1,-1,-1,-1,-1,-1,-1,-1,-1,-1,-1,-1,-1,-1,-1,-1,-1],"split_conditions":[3.56E1,1E1,4E2,4.1E2,1.042E1,2.51E2,8E0,8.9E0,4E-2,3.6E-2,1.58E1,1.23E1,8.1E0,-3.4680048E-1,1.28E1,3.79E0,9.48E1,-3.6952513E-1,3.41E0,3.5E-2,1.34E-1,4.17E1,9.6E1,1.32E-1,3.4E1,-3.2205728E-1,3.59E1,9.2E0,1.2E1,5.82E0,4.5E-2,1.09E1,5.4E-2,-3.9296103E-1,1.31E1,2.93E0,1.34E1,1.28E1,-3.45599E-1,3.1E-2,3.270599E-1,1.1E0,1.01E-1,3.59E1,-3.2813704E-1,1.02E1,3.5E-2,7.6E0,1.28E1,-3.1708065E-1,5.1E-2,2.03E1,-3.2296118E-1,9.671123E-2,-3.460896E-1,-3.6865473E-1,-6.047625E-1,3.1828532E-1,-6.327907E-1,-3.5973477E-1,-6.04729E-1,-3.0303898E-1,-5.473069E-1,-4.92362E-1,-2.8368023E-1,3.7469828E-1,-2.717759E-1,-5.84539E-1,-3.9049134E-1,-3.3289194E-1,-4.7853908E-1,-4.679386E-1,2.1143928E-1,3.1636566E-1,-4.4316578E-1,-7.1713984E-1,-4.3910164E-1,7.410215E-2,-3.2089514E-1,2.0609428E-1,-3.337661E-1,-3.5192168E-1,-7.0214415E-1,-4.1069582E-1,-3.1495008E-1,3.3637136E-1,-3.082122E-1,-1.7176348E-1,2.9289523E-1],"split_indices":[3,0,8,8,10,8,10,0,16,16,17,2,17,0,0,1,4,0,1,16,16,5,4,16,6,0,3,9,7,10,16,9,16,0,7,14,7,0,0,16,0,11,16,3,0,0,16,0,2,0,16,0,0,0,0,0,0,0,0,0,0,0,0,0,0,0,0,0,0,0,0,0,0,0,0,0,0,0,0,0,0,0,0,0,0,0,0,0,0],"split_type":[0,0,0,0,0,0,0,0,0,0,0,0,0,0,0,0,0,0,0,0,0,0,0,0,0,0,0,0,0,0,0,0,0,0,0,0,0,0,0,0,0,0,0,0,0,0,0,0,0,0,0,0,0,0,0,0,0,0,0,0,0,0,0,0,0,0,0,0,0,0,0,0,0,0,0,0,0,0,0,0,0,0,0,0,0,0,0,0,0],"sum_hessian":[8.433323E3,6.1938276E3,2.2394958E3,4.913426E3,1.2804021E3,1.9283407E3,3.1115512E2,4.708702E3,2.0472351E2,4.5292096E2,8.2748114E2,1.4114392E3,5.169014E2,3.8807503E1,2.723476E2,3.7912375E3,9.174647E2,9.400686E1,1.1071665E2,7.513275E1,3.777882E2,1.7546703E2,6.520141E2,1.9003621E2,1.2214031E3,3.8652365E2,1.3037775E2,2.2612514E2,4.622246E1,3.6044756E3,1.8676186E2,8.644638E2,5.300093E1,7.486111E1,3.5855545E1,3.1964989E1,4.316776E1,2.357643E2,1.420239E2,1.5231474E2,2.3152287E1,2.4813513E2,4.0387897E2,9.257171E1,9.746451E1,9.797285E2,2.4167451E2,1.1269382E1,1.1910837E2,7.4689345E0,2.186562E2,1.2499356E1,3.3723106E1,3.374013E3,2.3046278E2,8.836972E1,9.839213E1,8.4523486E2,1.9228933E1,3.0939304E1,2.2061625E1,5.2284975E0,3.0627048E1,2.0940792E1,1.1024197E1,3.715898E1,6.0087776E0,1.3922533E2,9.653898E1,8.108598E1,7.122875E1,9.133938E1,1.5679576E2,3.827657E2,2.1113287E1,1.7401329E1,7.517038E1,8.646118E2,1.1511673E2,3.689213E1,2.0478238E2,4.6476445E0,6.621738E0,8.882044E1,3.0287926E1,2.1439832E2,4.2578974E0,1.1062963E0,1.139306E1],"tree_param":{"num_deleted":"0","num_feature":"21","num_nodes":"89","size_leaf_vector":"1"}},{"base_weights":[-2.9362299E-2,-8.253401E-2,7.479869E-1,-4.5020524E-2,-1.0935677E0,8.655576E-1,1.1003852E-1,-1.5987319E-1,2.2855327E-1,-1.2371491E0,4.37845E-1,-4.6470293E-1,8.8858896E-1,7.922837E-1,-4.1903067E-1,-2.3955986E-1,5.192597E-1,5.2772635E-1,-5.915402E-1,-1.3565099E0,-3.2651424E-1,3.0440187E-1,-2.8417993E-1,9.079027E-1,-3.7735558E-1,9.6803004E-1,-3.43652E-1,-1.22253306E-1,-1.1494755E0,6.877208E-1,-3.7087697E-1,6.788099E-1,-3.3386213E-1,-1.3088737E0,2.6563388E-1,-1.4366518E0,-3.0113903E-1,9.216438E-1,-5.2242315E-1,-3.2251808E-1,3.1192246E-1,-6.591495E-2,1.9068617E-1,-4.1150603E-1,2.2388397E-1,2.530911E-1,-1.426332E-1,-3.836061E-1,2.2673108E-1,1.5601E-1,-4.1494074E-1,-4.1693136E-1,1.6083965E-1,-4.6280867E-1,-3.661732E-1,2.807562E-1,-3.839704E-1],"categories":[],"categories_nodes":[],"categories_segments":[],"categories_sizes":[],"default_left":[0,1,0,0,0,0,0,0,1,0,0,0,0,0,0,0,0,0,0,0,0,0,0,0,0,0,0,0,1,0,0,0,0,0,0,0,0,0,0,0,0,0,0,0,0,0,0,0,0,0,0,0,0,0,0,0,0],"id":10,"left_children":[1,3,5,7,9,11,13,15,17,19,21,-1,23,25,-1,27,29,31,33,35,-1,-1,-1,37,-1,39,-1,41,43,45,-1,47,-1,49,51,53,-1,55,-1,-1,-1,-1,-1,-1,-1,-1,-1,-1,-1,-1,-1,-1,-1,-1,-1,-1,-1],"loss_changes":[3.1289056E2,2.6866077E2,3.6255554E1,2.147159E2,5.6266266E1,2.4126007E1,7.981634E1,2.6058014E2,4.9608344E2,2.6426697E0,1.890819E1,0E0,1.7967102E1,1.927454E1,0E0,4.5969452E2,1.5041052E2,3.6786877E2,3.3274194E2,2.0812378E0,0E0,0E0,0E0,1.6269348E1,0E0,8.362442E0,0E0,2.82095E2,2.0821906E2,8.420297E1,0E0,2.0536987E2,0E0,4.071341E1,1.1140033E2,3.9112854E-1,0E0,1.37552185E1,0E0,0E0,0E0,0E0,0E0,0E0,0E0,0E0,0E0,0E0,0E0,0E0,0E0,0E0,0E0,0E0,0E0,0E0,0E0],"parents":[2147483647,0,0,1,1,2,2,3,3,4,4,5,5,6,6,7,7,8,8,9,9,10,10,12,12,13,13,15,15,16,16,17,17,18,18,19,19,23,23,25,25,27,27,28,28,29,29,31,31,33,33,34,34,35,35,37,37],"right_children":[2,4,6,8,10,12,14,16,18,20,22,-1,24,26,-1,28,30,32,34,36,-1,-1,-1,38,-1,40,-1,42,44,46,-1,48,-1,50,52,54,-1,56,-1,-1,-1,-1,-1,-1,-1,-1,-1,-1,-1,-1,-1,-1,-1,-1,-1,-1,-1],"split_conditions":[3.86E1,9E-2,6.5E-2,1.8E-1,8.14E2,2.4E0,1.58E0,2.11E1,6.9E-1,3.47E1,2.17E0,-4.6470293E-1,3.14E0,8.6E0,-4.1903067E-1,1.73E1,3.55E1,1.21E1,3.13E1,2.93E0,-3.2651424E-1,3.0440187E-1,-2.8417993E-1,2.08E0,-3.7735558E-1,4.7E0,-3.43652E-1,1.47E0,1.25E1,5E-1,-3.7087697E-1,6.7E1,-3.3386213E-1,1.2E1,4E-2,3.64E1,-3.0113903E-1,2E0,-5.2242315E-1,-3.2251808E-1,3.1192246E-1,-6.591495E-2,1.9068617E-1,-4.1150603E-1,2.2388397E-1,2.530911E-1,-1.426332E-1,-3.836061E-1,2.2673108E-1,1.5601E-1,-4.1494074E-1,-4.1693136E-1,1.6083965E-1,-4.6280867E-1,-3.661732E-1,2.807562E-1,-3.839704E-1],"split_indices":[5,13,16,12,8,0,1,7,15,3,1,0,1,0,0,7,17,2,5,14,0,0,0,14,0,2,0,15,9,19,0,8,0,7,13,17,0,11,0,0,0,0,0,0,0,0,0,0,0,0,0,0,0,0,0,0,0],"split_type":[0,0,0,0,0,0,0,0,0,0,0,0,0,0,0,0,0,0,0,0,0,0,0,0,0,0,0,0,0,0,0,0,0,0,0,0,0,0,0,0,0,0,0,0,0,0,0,0,0,0,0,0,0,0,0,0,0],"sum_hessian":[7.567503E3,7.083852E3,4.8365097E2,6.831423E3,2.5242917E2,4.08086E2,7.5564964E1,4.8117524E3,2.0196704E3,2.3096649E2,2.1462679E1,3.2297363E0,4.0485626E2,5.234062E1,2.3224344E1,4.3070303E3,5.0472205E2,1.480086E3,5.395843E2,1.2364476E2,1.0732174E2,1.53412695E1,6.1214085E0,4.0181772E2,3.038549E0,4.8447186E1,3.8934317E0,3.8161816E3,4.9084872E2,4.610842E2,4.3637856E1,1.3558148E3,1.2427133E2,2.9346698E2,2.461173E2,9.824814E1,2.539662E1,4.0039313E2,1.4245807E0,1.1683694E0,4.7278816E1,3.3819678E3,4.3421375E2,4.3959766E2,5.1251064E1,4.0682596E2,5.4258217E1,5.0697636E1,1.3051172E3,1.1216927E1,2.8225003E2,3.3986668E1,2.1213063E2,6.178567E1,3.6462467E1,3.983965E2,1.9966121E0],"tree_param":{"num_deleted":"0","num_feature":"21","num_nodes":"57","size_leaf_vector":"1"}},{"base_weights":[-2.5076604E-2,-6.688638E-2,6.9125646E-1,-3.677937E-2,-1.0375962E0,8.3715695E-1,2.245446E-1,-1.2997134E0,-1.6007813E-2,-1.1733427E0,4.135811E-1,8.729486E-1,-4.555857E-1,6.409022E-1,-1.718566E0,-3.3073854E-1,-1.4010882E0,3.0828407E-1,-1.18024886E-1,-1.2233481E0,-3.015288E-1,2.9299378E-1,-2.6760632E-1,-4.0891486E-1,8.9957815E-1,-3.458926E-1,7.840147E-1,-7.7541417E-1,-3.8633528E-1,-3.6745724E-1,-1.6525893E0,-1.3643935E0,4.0470773E-1,1.8100245E-1,-2.714284E-1,-3.914462E-1,-3.2252827E-1,9.1427505E-1,-4.2810482E-1,-2.777836E-1,8.729896E-1,-3.442225E-1,-5.59514E-1,-4.4610855E-1,-3.3196217E-1,1.4775234E-1,-4.5013195E-1,-4.5552436E-1,1.1273167E-1,-1.9393499E-1,-2.7247244E-2,2.7941638E-1,-3.1956276E-1,2.8170353E-1,-2.257007E-1],"categories":[],"categories_nodes":[],"categories_segments":[],"categories_sizes":[],"default_left":[0,1,0,0,0,0,0,0,0,0,0,0,0,0,0,0,1,0,0,0,0,0,0,0,0,0,0,0,0,0,0,1,1,1,0,0,0,0,0,0,0,0,0,0,0,0,0,0,0,0,0,0,0,0,0],"id":11,"left_children":[1,3,5,7,9,11,13,15,17,19,21,23,-1,25,27,-1,29,31,33,35,-1,-1,-1,-1,37,-1,39,-1,-1,-1,41,43,45,47,49,-1,-1,51,-1,-1,53,-1,-1,-1,-1,-1,-1,-1,-1,-1,-1,-1,-1,-1,-1],"loss_changes":[2.0772047E2,1.914629E2,2.5856903E1,1.6673065E2,3.9308853E1,2.5864212E1,7.590437E1,5.118103E-1,2.0696205E2,2.8886414E-1,1.3808071E1,1.8333466E1,0E0,2.0639206E1,2.8605385E0,0E0,8.230057E-1,2.4200371E2,2.1833685E2,2.2209167E-1,0E0,0E0,0E0,0E0,1.1033737E1,0E0,1.1730476E1,0E0,0E0,0E0,3.9337158E-1,9.419708E-1,2.376328E2,5.348263E2,2.1299109E2,0E0,0E0,1.05905E1,0E0,0E0,8.084099E0,0E0,0E0,0E0,0E0,0E0,0E0,0E0,0E0,0E0,0E0,0E0,0E0,0E0,0E0],"parents":[2147483647,0,0,1,1,2,2,3,3,4,4,5,5,6,6,7,7,8,8,9,9,10,10,11,11,13,13,14,14,16,16,17,17,18,18,19,19,24,24,26,26,30,30,31,31,32,32,33,33,34,34,37,37,40,40],"right_children":[2,4,6,8,10,12,14,16,18,20,22,24,-1,26,28,-1,30,32,34,36,-1,-1,-1,-1,38,-1,40,-1,-1,-1,42,44,46,48,50,-1,-1,52,-1,-1,54,-1,-1,-1,-1,-1,-1,-1,-1,-1,-1,-1,-1,-1,-1],"split_conditions":[3.86E1,9E-2,4.8E-2,2.7E-2,8.14E2,2.83E1,3.45E1,9.21E1,1.4E1,2.93E0,2.17E0,2.4E0,-4.555857E-1,3.28E1,7.7E1,-3.3073854E-1,4.04E0,3.1E1,3.14E1,3.48E1,-3.015288E-1,2.9299378E-1,-2.6760632E-1,-4.0891486E-1,2.08E0,-3.458926E-1,3.2E0,-7.7541417E-1,-3.8633528E-1,-3.6745724E-1,9.9E0,2.22E0,1.14E1,1.51E1,3.03E1,-3.914462E-1,-3.2252827E-1,2E0,-4.2810482E-1,-2.777836E-1,5.55E0,-3.442225E-1,-5.59514E-1,-4.4610855E-1,-3.3196217E-1,1.4775234E-1,-4.5013195E-1,-4.5552436E-1,1.1273167E-1,-1.9393499E-1,-2.7247244E-2,2.7941638E-1,-3.1956276E-1,2.8170353E-1,-2.257007E-1],"split_indices":[5,13,16,16,8,17,6,4,17,14,1,0,0,6,8,0,10,6,6,3,0,0,0,0,14,0,0,0,0,0,9,14,9,7,5,0,0,11,0,0,10,0,0,0,0,0,0,0,0,0,0,0,0,0,0],"split_type":[0,0,0,0,0,0,0,0,0,0,0,0,0,0,0,0,0,0,0,0,0,0,0,0,0,0,0,0,0,0,0,0,0,0,0,0,0,0,0,0,0,0,0,0,0,0,0,0,0,0,0,0,0,0,0],"sum_hessian":[6.9330957E3,6.551609E3,3.8148712E2,6.355527E3,1.9608168E2,2.9002698E2,9.146015E1,1.0184209E2,6.253685E3,1.794838E2,1.6597881E1,2.8630652E2,3.7204514E0,7.587277E1,1.55873785E1,3.860361E1,6.3238472E1,1.4960426E3,4.7576426E3,1.3352657E2,4.5957233E1,1.1772662E1,4.8252187E0,2.778979E0,2.8352753E2,5.0844226E0,7.078835E1,3.516634E0,1.20707445E1,4.063504E1,2.2603432E1,8.082404E1,1.4152185E3,1.6130896E3,3.1445527E3,8.113678E1,5.2389782E1,2.8235098E2,1.1765572E0,3.0359168E0,6.775243E1,8.5866785E0,1.4016752E1,5.1543114E1,2.9280931E1,1.3535793E3,6.1639175E1,1.6516718E2,1.4479225E3,1.0212878E3,2.123265E3,2.804559E2,1.8950896E0,6.551348E1,2.2389524E0],"tree_param":{"num_deleted":"0","num_feature":"21","num_nodes":"55","size_leaf_vector":"1"}},{"base_weights":[-2.1810673E-2,5.196266E-3,-3.0809227E-1,-9.970555E-2,2.3287758E-1,-2.9751724E-1,1.959538E-1,-1.063994E0,3.8086295E-1,-1.2585543E0,-1.3010727E-1,5.424764E-1,-1.4623606E-1,8.004745E-1,-1.2839597E0,6.694136E-1,-4.2762592E-2,-1.115707E0,-1.5900388E0,6.278492E-1,-4.1119987E-1,-8.069526E-1,7.3346823E-1,-1.2818948E0,2.2459748E-1,2.9241648E-1,-2.1638013E-1,-1.4089749E0,-3.2180542E-1,-3.639684E-1,7.2647756E-1,-1.3519119E0,2.585581E-1,-3.2409728E-1,-3.79339E-1,-5.9983796E-1,-4.1106635E-1,2.4514045E-1,-1.9771212E-1,-2.352726E-2,-2.7533075E-1,-3.79719E-1,3.1616303E-1,2.4634485E-1,-4.4861957E-1,-3.1806374E-1,-4.2223492E-1,-8.532024E-2,2.543419E-1,-3.6719906E-1,-5.1421744E-1,2.4313755E-1,-7.63849E-2,-3.3626443E-1,-5.467606E-1,-3.9634046E-1,1.3152184E-1],"categories":[],"categories_nodes":[],"categories_segments":[],"categories_sizes":[],"default_left":[1,1,0,1,0,0,0,0,0,1,1,0,0,0,0,1,0,1,0,0,0,0,1,1,0,0,0,0,0,0,0,1,1,0,0,0,0,0,0,0,0,0,0,0,0,0,0,0,0,0,0,0,0,0,0,0,0],"id":12,"left_children":[1,3,-1,5,7,9,11,13,15,17,19,21,23,25,27,29,31,33,35,37,39,41,43,45,47,-1,-1,49,-1,-1,51,53,55,-1,-1,-1,-1,-1,-1,-1,-1,-1,-1,-1,-1,-1,-1,-1,-1,-1,-1,-1,-1,-1,-1,-1,-1],"loss_changes":[1.7750711E2,1.5213194E2,0E0,2.550842E2,3.8597864E2,4.2023175E2,2.074176E2,8.552669E1,2.2054712E2,1.6576355E1,4.7461688E2,2.2455727E2,3.7113077E2,6.631567E0,3.3664246E0,1.16170715E2,2.8905283E2,7.70874E-2,7.552002E0,1.4735359E2,2.7381616E2,9.372179E1,1.5010101E2,4.5450745E0,2.1107974E2,0E0,0E0,4.269623E0,0E0,0E0,8.607672E1,1.2863144E1,1.6984172E2,0E0,0E0,0E0,0E0,0E0,0E0,0E0,0E0,0E0,0E0,0E0,0E0,0E0,0E0,0E0,0E0,0E0,0E0,0E0,0E0,0E0,0E0,0E0,0E0],"parents":[2147483647,0,0,1,1,3,3,4,4,5,5,6,6,7,7,8,8,9,9,10,10,11,11,12,12,13,13,14,14,15,15,16,16,17,17,18,18,19,19,20,20,21,21,22,22,23,23,24,24,27,27,30,30,31,31,32,32],"right_children":[2,4,-1,6,8,10,12,14,16,18,20,22,24,26,28,30,32,34,36,38,40,42,44,46,48,-1,-1,50,-1,-1,52,54,56,-1,-1,-1,-1,-1,-1,-1,-1,-1,-1,-1,-1,-1,-1,-1,-1,-1,-1,-1,-1,-1,-1,-1,-1],"split_conditions":[3.04E0,1.08E1,-3.0809227E-1,6.43E0,7.7E-1,1.35E1,1.02E1,9E-3,3.16E1,4.8E-2,1.4E1,8.9E0,8.99E1,1.69E0,1.34E-1,7.4E-1,1.65E2,5.2E0,3.32E1,6.9E0,2.21E2,3.86E1,7.6E-2,3.8E-2,4E2,2.9241648E-1,-2.1638013E-1,6E-1,-3.2180542E-1,-3.639684E-1,5.82E0,1.2E1,3E-2,-3.2409728E-1,-3.79339E-1,-5.9983796E-1,-4.1106635E-1,2.4514045E-1,-1.9771212E-1,-2.352726E-2,-2.7533075E-1,-3.79719E-1,3.1616303E-1,2.4634485E-1,-4.4861957E-1,-3.1806374E-1,-4.2223492E-1,-8.532024E-2,2.543419E-1,-3.6719906E-1,-5.1421744E-1,2.4313755E-1,-7.63849E-2,-3.3626443E-1,-5.467606E-1,-3.9634046E-1,1.3152184E-1],"split_indices":[14,9,0,10,14,7,0,16,3,16,7,0,4,1,16,10,8,17,3,0,8,5,16,16,8,0,0,14,0,0,10,17,13,0,0,0,0,0,0,0,0,0,0,0,0,0,0,0,0,0,0,0,0,0,0,0,0],"split_type":[0,0,0,0,0,0,0,0,0,0,0,0,0,0,0,0,0,0,0,0,0,0,0,0,0,0,0,0,0,0,0,0,0,0,0,0,0,0,0,0,0,0,0,0,0,0,0,0,0,0,0,0,0,0,0,0,0],"sum_hessian":[6.537688E3,6.3675967E3,1.7009106E2,4.359544E3,2.0080527E3,2.6119832E3,1.7475609E3,2.0503511E2,1.8030176E3,3.8653204E2,2.2254512E3,8.679926E2,8.795683E2,2.1358402E1,1.8367671E2,1.0721483E3,7.308693E2,2.7317706E2,1.13354965E2,6.017147E2,1.6237365E3,1.0721975E2,7.607728E2,2.1590709E2,6.636612E2,1.9486563E1,1.8718401E0,1.1183379E2,7.184291E1,3.0945337E1,1.041203E3,1.3609409E2,5.9477527E2,2.2736008E2,4.5816982E1,3.6771065E1,7.65839E1,5.2487683E2,7.683787E1,9.806695E2,6.4306696E2,8.627013E1,2.0949623E1,7.325853E2,2.8187532E1,8.148307E1,1.3442401E2,3.65603E2,2.980582E2,7.274131E1,3.9092487E1,9.592646E2,8.19384E1,9.3551216E1,4.254288E1,6.0145157E1,5.3463007E2],"tree_param":{"num_deleted":"0","num_feature":"21","num_nodes":"57","size_leaf_vector":"1"}},{"base_weights":[-2.1881646E-2,2.8738152E-4,-3.0505064E-1,6.8626136E-1,-2.8141553E-2,-7.226752E-1,8.217709E-1,3.4932345E-3,-9.213849E-1,-1.7116888E0,2.73264E-1,8.651947E-1,-8.3231086E-1,-1.0252336E0,3.8437203E-2,-1.2605283E0,5.9210306E-1,-1.0106591E0,-3.582484E-1,9.0366495E-1,-2.9124388E-1,-1.2200586E0,4.854972E-1,-1.0654898E-2,4.7369707E-1,-1.3643075E0,-3.2610327E-1,9.438362E-1,-3.1085062E-1,2.7968144E-1,-3.3164898E-1,-3.5480633E-1,-5.6044704E-1,-3.3316296E-1,3.0591792E-1,3.0422617E-2,-8.644057E-2,2.0750074E-1,-1.622271E-1,-4.5379677E-1,-3.59897E-1,3.110942E-1,-1.8125877E-1],"categories":[],"categories_nodes":[],"categories_segments":[],"categories_sizes":[],"default_left":[1,0,0,0,0,0,0,1,0,0,0,1,0,0,0,0,0,0,0,0,0,0,0,0,1,0,0,0,0,0,0,0,0,0,0,0,0,0,0,0,0,0,0],"id":13,"left_children":[1,3,-1,5,7,9,11,13,15,17,-1,19,-1,21,23,25,27,-1,-1,29,-1,31,33,35,37,39,-1,41,-1,-1,-1,-1,-1,-1,-1,-1,-1,-1,-1,-1,-1,-1,-1],"loss_changes":[1.2961258E2,1.1213591E2,0E0,4.428118E1,1.5602182E2,3.4854763E1,3.5070343E1,1.9176514E2,9.768417E1,7.28421E0,0E0,1.5531769E1,0E0,5.2173843E1,1.10245834E2,1.3010101E0,2.1167664E1,0E0,0E0,1.2740463E1,0E0,1.5572052E0,1.8811565E1,1.442268E2,1.16007614E2,4.5259094E-1,0E0,4.8820953E0,0E0,0E0,0E0,0E0,0E0,0E0,0E0,0E0,0E0,0E0,0E0,0E0,0E0,0E0,0E0],"parents":[2147483647,0,0,1,1,3,3,4,4,5,5,6,6,7,7,8,8,9,9,11,11,13,13,14,14,15,15,16,16,19,19,21,21,22,22,23,23,24,24,25,25,27,27],"right_children":[2,4,-1,6,8,10,12,14,16,18,-1,20,-1,22,24,26,28,-1,-1,30,-1,32,34,36,38,40,-1,42,-1,-1,-1,-1,-1,-1,-1,-1,-1,-1,-1,-1,-1,-1,-1],"split_conditions":[3.04E0,1.69E0,-3.0505064E-1,1.03E1,1.5E0,3.1E0,2.1E-1,1.29E0,3.000001E1,1.46E1,2.73264E-1,1.04E-1,-8.3231086E-1,3.73E1,1.47E0,1.34E-1,1.9E0,-1.0106591E0,-3.582484E-1,5.82E0,-2.9124388E-1,3.59E1,3.2E0,9.5E1,1.67E0,2.05E2,-3.2610327E-1,2.79E0,-3.1085062E-1,2.7968144E-1,-3.3164898E-1,-3.5480633E-1,-5.6044704E-1,-3.3316296E-1,3.0591792E-1,3.0422617E-2,-8.644057E-2,2.0750074E-1,-1.622271E-1,-4.5379677E-1,-3.59897E-1,3.110942E-1,-1.8125877E-1],"split_indices":[14,1,0,9,11,20,12,10,9,17,0,16,0,5,15,16,11,0,0,10,0,5,0,4,15,8,0,1,0,0,0,0,0,0,0,0,0,0,0,0,0,0,0],"split_type":[0,0,0,0,0,0,0,0,0,0,0,0,0,0,0,0,0,0,0,0,0,0,0,0,0,0,0,0,0,0,0,0,0,0,0,0,0,0,0,0,0,0,0],"sum_hessian":[5.875201E3,5.748124E3,1.2707692E2,2.2781992E2,5.520304E3,1.9608723E1,2.082112E2,5.332448E3,1.87856E2,1.218416E1,7.424563E0,2.0647737E2,1.7338243E0,1.7425186E2,5.1581963E3,1.5360355E2,3.425246E1,1.5884017E0,1.0595758E1,2.0273718E2,3.7401886E0,1.5451758E2,1.9734283E1,4.6362573E3,5.2193884E2,9.1822655E1,6.1780888E1,2.851344E1,5.7390213E0,2.0041959E2,2.3175955E0,1.4876436E2,5.7532063E0,4.6784296E0,1.5055854E1,3.3029556E3,1.333302E3,4.2988846E2,9.205038E1,4.3995888E1,4.7826763E1,2.7206562E1,1.3068769E0],"tree_param":{"num_deleted":"0","num_feature":"21","num_nodes":"43","size_leaf_vector":"1"}},{"base_weights":[-1.7732294E-2,3.2077786E-3,-9.275186E-1,-2.2965105E-2,6.80837E-1,1.9450516E-1,-3.3460206E-1,1.173869E-1,-2.2872943E-1,1.0049105E0,-3.5410804E-1,2.786045E-1,-3.310823E-1,6.659076E-2,8.8128144E-1,-4.4576913E-1,2.2729523E-1,1.0513841E0,-3.8524503E-1,1.3675354E-1,-1.0930771E0,1.0502323E0,-4.0151832E-1,-6.335761E-1,6.212462E-1,9.254269E-1,-2.1808596E-1,-2.4729718E-1,1.0893801E0,5.8576755E-2,-2.411047E-1,3.258131E-1,-4.3660313E-1,-4.1157505E-1,3.450591E-1,1.9582286E-2,-3.4343976E-1,-3.8480845E-1,2.361262E-1,3.1426778E-1,-6.091302E-1,-3.7093204E-1,7.3775135E-2,-1.6275366E-1,3.308621E-1],"categories":[],"categories_nodes":[],"categories_segments":[],"categories_sizes":[],"default_left":[1,0,0,1,0,0,0,1,1,0,0,0,0,1,0,0,0,1,0,1,0,1,0,0,0,0,1,0,1,0,0,0,0,0,0,0,0,0,0,0,0,0,0,0,0],"id":14,"left_children":[1,3,5,7,9,11,-1,13,15,17,-1,-1,-1,19,21,23,25,27,-1,29,31,33,-1,35,37,39,41,-1,43,-1,-1,-1,-1,-1,-1,-1,-1,-1,-1,-1,-1,-1,-1,-1,-1],"loss_changes":[1.07573875E2,9.79233E1,2.6989647E1,1.5355296E2,1.25031265E2,1.919777E1,0E0,1.2259949E2,2.1349718E2,2.0011078E1,0E0,0E0,0E0,2.4140207E2,7.528786E1,2.9319482E2,2.1658514E2,1.3190231E1,0E0,1.5402905E2,1.3520567E2,4.6041733E1,0E0,4.441398E2,7.021932E1,1.00045654E2,2.0144339E2,0E0,4.3303375E0,0E0,0E0,0E0,0E0,0E0,0E0,0E0,0E0,0E0,0E0,0E0,0E0,0E0,0E0,0E0,0E0],"parents":[2147483647,0,0,1,1,2,2,3,3,4,4,5,5,7,7,8,8,9,9,13,13,14,14,15,15,16,16,17,17,19,19,20,20,21,21,23,23,24,24,25,25,26,26,28,28],"right_children":[2,4,6,8,10,12,-1,14,16,18,-1,-1,-1,20,22,24,26,28,-1,30,32,34,-1,36,38,40,42,-1,44,-1,-1,-1,-1,-1,-1,-1,-1,-1,-1,-1,-1,-1,-1,-1,-1],"split_conditions":[9E-2,3.3E0,2.17E0,6.5E-1,3.2E1,9.2E0,-3.3460206E-1,6.4E-1,7.4E-2,4E-1,-3.5410804E-1,2.786045E-1,-3.310823E-1,6E-1,9.16E1,3.44E1,7.9E-2,4.9E-2,-3.8524503E-1,1.02E-1,3.7E0,9.9E0,-4.0151832E-1,1.34E1,1.66E2,9.48E1,4E-2,-2.4729718E-1,6.8E-1,5.8576755E-2,-2.411047E-1,3.258131E-1,-4.3660313E-1,-4.1157505E-1,3.450591E-1,1.9582286E-2,-3.4343976E-1,-3.8480845E-1,2.361262E-1,3.1426778E-1,-6.091302E-1,-3.7093204E-1,7.3775135E-2,-1.6275366E-1,3.308621E-1],"split_indices":[13,19,1,15,6,9,0,15,16,11,0,0,0,15,4,5,16,16,0,16,17,9,0,7,8,4,13,0,15,0,0,0,0,0,0,0,0,0,0,0,0,0,0,0,0],"split_type":[0,0,0,0,0,0,0,0,0,0,0,0,0,0,0,0,0,0,0,0,0,0,0,0,0,0,0,0,0,0,0,0,0,0,0,0,0,0,0,0,0,0,0,0,0],"sum_hessian":[5.6454727E3,5.519431E3,1.2604137E2,5.3151055E3,2.0432558E2,1.8068237E1,1.0797313E2,3.1600576E3,2.155048E3,1.7441614E2,2.9909433E1,1.172276E1,6.3454766E0,2.9640466E3,1.9601086E2,1.4601357E3,6.9491235E2,1.7147545E2,2.9406908E0,2.7957773E3,1.682694E2,1.8263634E2,1.3374528E1,1.2419453E3,2.1819043E2,2.7023822E2,4.2467416E2,2.9937031E0,1.6848175E2,2.63279E3,1.6298726E2,2.3701464E1,1.4456793E2,6.7345176E0,1.7590181E2,5.250566E2,7.168888E2,1.6942884E1,2.0124754E2,2.6013535E2,1.0102854E1,1.3240916E2,2.9226498E2,1.0601727E0,1.6742157E2],"tree_param":{"num_deleted":"0","num_feature":"21","num_nodes":"45","size_leaf_vector":"1"}},{"base_weights":[-1.655454E-2,1.1688433E-1,-1.4471917E-1,-5.1995143E-2,7.0289946E-1,-1.501569E0,-9.0851866E-2,-2.1676438E-1,4.7320473E-1,-1.3768756E0,8.748556E-1,-1.3898679E0,-2.3428366E0,1.5966582E-1,-3.4931037E-1,-1.2997152E-2,-1.3950377E0,-8.1673616E-1,6.446411E-1,-3.289222E-1,-1.5671173E0,9.4862247E-1,-3.4668407E-1,-4.4751438E-1,-3.4739286E-1,-2.7731693E-1,-2.6805894E0,-2.7987832E-1,5.6577295E-1,-8.1135996E-2,-9.9335057E-1,8.004978E-2,-1.1782693E0,-1.367122E0,-2.1941452E0,-1.2437732E0,2.4726148E-1,7.1098214E-1,-1.3598891E0,-1.8290511E0,-3.351462E-1,-4.1921455E-1,1.0091552E0,-3.3959386E-1,-8.890577E-1,-1.2191718E0,2.279313E-1,7.1926767E-1,-1.2666559E0,-1.2959198E0,9.2533395E-2,-1.2626184E0,-1.6433336E-1,-1.1805316E-2,3.0907342E-1,-4.274199E-1,3.0223599E-2,-3.7682304E-1,-4.5204398E-1,-2.618275E-1,-8.5491776E-1,-3.2280275E-1,-5.197602E-1,2.3606314E-1,-1.7988552E-1,-3.1914416E-1,-6.4698416E-1,-3.525271E-1,-6.4614666E-1,3.441901E-1,1.5527584E-1,-3.2473192E-1,-4.2069736E-1,1.5190968E-1,-3.2187685E-1,2.5044605E-1,-3.1571326E-1,-3.51869E-1,-6.4916563E-1,-3.2746887E-1,-5.281065E-1,-3.8559577E-1,6.977222E-2,-4.2626816E-1,-3.1846288E-1,-3.5053825E-1,2.1237451E-1],"categories":[],"categories_nodes":[],"categories_segments":[],"categories_sizes":[],"default_left":[0,0,0,1,1,1,1,0,1,1,0,0,1,0,0,1,1,0,1,0,0,1,0,0,0,0,1,0,0,0,0,1,0,0,1,0,0,0,0,0,0,0,0,0,0,1,0,0,0,1,0,0,0,0,0,0,0,0,0,0,0,0,0,0,0,0,0,0,0,0,0,0,0,0,0,0,0,0,0,0,0,0,0,0,0,0,0],"id":15,"left_children":[1,3,5,7,9,11,13,15,17,19,21,23,25,27,29,31,33,35,37,-1,39,41,-1,-1,-1,-1,43,45,47,49,51,53,55,57,59,61,-1,63,65,67,-1,-1,69,-1,-1,71,73,75,77,79,81,83,85,-1,-1,-1,-1,-1,-1,-1,-1,-1,-1,-1,-1,-1,-1,-1,-1,-1,-1,-1,-1,-1,-1,-1,-1,-1,-1,-1,-1,-1,-1,-1,-1,-1,-1],"loss_changes":[8.972537E1,2.5441875E2,1.9545561E2,1.7285605E2,2.0687766E2,6.339905E0,1.667785E2,3.6498563E2,1.060214E2,6.45874E-1,8.074896E1,4.597931E-1,2.5578766E0,2.3368146E2,2.1886903E2,1.4073462E2,2.0002747E0,4.054975E1,5.703766E1,0E0,7.936325E-1,7.436069E1,0E0,0E0,0E0,0E0,1.3456726E-1,3.0026364E2,1.9226169E2,1.8917146E2,8.296478E1,1.3642831E2,3.0399292E1,1.5079346E0,2.6347275E0,1.8383408E0,0E0,4.1133316E1,9.7301674E-1,3.6705017E-1,0E0,0E0,3.3452362E1,0E0,0E0,4.0129395E0,1.4870871E2,1.2951709E2,1.9158783E0,8.722916E0,1.5175943E2,7.4375E0,8.184127E1,0E0,0E0,0E0,0E0,0E0,0E0,0E0,0E0,0E0,0E0,0E0,0E0,0E0,0E0,0E0,0E0,0E0,0E0,0E0,0E0,0E0,0E0,0E0,0E0,0E0,0E0,0E0,0E0,0E0,0E0,0E0,0E0,0E0,0E0],"parents":[2147483647,0,0,1,1,2,2,3,3,4,4,5,5,6,6,7,7,8,8,9,9,10,10,11,11,12,12,13,13,14,14,15,15,16,16,17,17,18,18,20,20,21,21,26,26,27,27,28,28,29,29,30,30,31,31,32,32,33,33,34,34,35,35,37,37,38,38,39,39,42,42,45,45,46,46,47,47,48,48,49,49,50,50,51,51,52,52],"right_children":[2,4,6,8,10,12,14,16,18,20,22,24,26,28,30,32,34,36,38,-1,40,42,-1,-1,-1,-1,44,46,48,50,52,54,56,58,60,62,-1,64,66,68,-1,-1,70,-1,-1,72,74,76,78,80,82,84,86,-1,-1,-1,-1,-1,-1,-1,-1,-1,-1,-1,-1,-1,-1,-1,-1,-1,-1,-1,-1,-1,-1,-1,-1,-1,-1,-1,-1,-1,-1,-1,-1,-1,-1],"split_conditions":[3.46E0,3.36E0,3.53E0,3.43E1,5.6E-1,1.11E1,6E-2,3.19E0,6.6E-1,2.8E0,1.13E1,1.27E-1,9.5E-1,3E-2,2.61E2,2.3E-1,1.6E0,4E-1,2.83E1,-3.289222E-1,1.02E-1,9.3E0,-3.4668407E-1,-4.4751438E-1,-3.4739286E-1,-2.7731693E-1,1.76E1,8.21E0,7.9E0,3E-2,4.42E2,2.1E-1,9E-2,8E-2,5.5E-2,1.051E2,2.4726148E-1,2E-1,3.28E0,8.5E-1,-3.351462E-1,-4.1921455E-1,7.4E-1,-3.3959386E-1,-8.890577E-1,3.8E-2,3.78E1,4.34E0,2.33E1,5E-2,1.53E2,3.59E1,3.79E1,-1.1805316E-2,3.0907342E-1,-4.274199E-1,3.0223599E-2,-3.7682304E-1,-4.5204398E-1,-2.618275E-1,-8.5491776E-1,-3.2280275E-1,-5.197602E-1,2.3606314E-1,-1.7988552E-1,-3.1914416E-1,-6.4698416E-1,-3.525271E-1,-6.4614666E-1,3.441901E-1,1.5527584E-1,-3.2473192E-1,-4.2069736E-1,1.5190968E-1,-3.2187685E-1,2.5044605E-1,-3.1571326E-1,-3.51869E-1,-6.4916563E-1,-3.2746887E-1,-5.281065E-1,-3.8559577E-1,6.977222E-2,-4.2626816E-1,-3.1846288E-1,-3.5053825E-1,2.1237451E-1],"split_indices":[1,1,1,6,15,9,12,1,14,10,2,16,14,12,8,12,15,18,17,0,16,9,0,0,0,0,17,10,10,13,8,12,13,12,16,4,0,20,1,14,0,0,15,0,0,16,3,1,7,16,8,3,3,0,0,0,0,0,0,0,0,0,0,0,0,0,0,0,0,0,0,0,0,0,0,0,0,0,0,0,0,0,0,0,0,0,0],"split_type":[0,0,0,0,0,0,0,0,0,0,0,0,0,0,0,0,0,0,0,0,0,0,0,0,0,0,0,0,0,0,0,0,0,0,0,0,0,0,0,0,0,0,0,0,0,0,0,0,0,0,0,0,0,0,0,0,0,0,0,0,0,0,0,0,0,0,0,0,0,0,0,0,0,0,0,0,0,0,0,0,0,0,0,0,0,0,0],"sum_hessian":[5.244451E3,2.5694014E3,2.6750496E3,1.9953013E3,5.7410016E2,1.0111879E2,2.5739307E3,1.5192571E3,4.7604425E2,4.3306732E1,5.3079346E2,9.160753E1,9.511267E0,1.3072382E3,1.2666926E3,1.2961206E3,2.2313638E2,5.5403904E1,4.2064035E2,2.0236229E1,2.3070501E1,5.126999E2,1.8093567E1,5.9876865E1,3.1730661E1,2.5478873E0,6.9633794E0,6.2792426E2,6.793139E2,8.9510315E2,3.7158948E2,1.2011409E3,9.497975E1,2.1822389E2,4.9124923E0,4.4155064E1,1.1248839E1,4.0778964E2,1.2850701E1,1.2644796E1,1.0425705E1,1.2340662E1,5.0035922E2,1.8482236E0,5.1151557E0,2.1985622E2,4.0806805E2,6.273693E2,5.1944565E1,1.11152306E2,7.839508E2,2.8009164E2,9.149783E1,1.067907E3,1.3323387E2,7.953884E1,1.5440907E1,1.2714426E2,9.107963E1,2.4020994E0,2.5103927E0,3.525538E1,8.899684E0,3.858455E2,2.1944153E1,1.1071567E1,1.7791342E0,5.728357E0,6.9164395E0,3.8955038E2,1.1080883E2,1.2983687E2,9.001935E1,3.3662723E2,7.144081E1,5.894521E2,3.791721E1,4.911894E1,2.8256238E0,7.951506E1,3.1637243E1,7.15727E1,7.123781E2,1.5333133E2,1.2676032E2,4.2375637E1,4.9122196E1],"tree_param":{"num_deleted":"0","num_feature":"21","num_nodes":"87","size_leaf_vector":"1"}},{"base_weights":[-2.0586647E-2,-5.743849E-2,3.6667022E-1,2.8364111E-3,-6.141499E-1,5.341127E-1,-3.4909117E-1,-9.8849493E-1,3.4129325E-2,-1.3457139E-1,-1.2712225E0,-3.6073688E-1,6.189614E-1,-1.1689757E0,2.998446E-1,-5.9289638E-2,3.3206785E-1,-8.0128133E-1,4.4585684E-1,-3.7067467E-1,-1.8290217E0,7.853236E-1,-1.5723613E-1,-3.2768172E-1,-4.2439818E-1,2.772113E-1,-2.6215675E-1,-1.0390058E-3,-1.604002E0,4.6086392E-1,-1.2576761E0,-1.1811543E0,7.1677566E-1,9.9526364E-1,-1.2902553E0,-7.2344637E-1,-2.5572634E-1,-3.9323565E-1,8.384319E-1,-4.2509577E-1,6.9821084E-1,-5.06591E-2,8.430486E-2,-6.437042E-1,-4.0137205E-1,1.9563124E-1,-1.720553E-1,-4.0509805E-1,-3.0493417E-1,-3.3550906E-1,-5.224894E-1,-6.3435626E-1,2.9492575E-1,-3.4682918E-1,3.2523528E-1,-3.4998506E-1,-5.649821E-1,2.5879994E-1,-4.654638E-1,2.7858117E-1,-3.5813802E-1],"categories":[],"categories_nodes":[],"categories_segments":[],"categories_sizes":[],"default_left":[1,1,0,0,1,1,0,0,1,0,0,0,0,0,0,1,0,0,0,0,0,0,0,0,0,0,0,1,0,0,0,0,1,0,1,0,0,0,1,0,0,0,0,0,0,0,0,0,0,0,0,0,0,0,0,0,0,0,0,0,0],"id":16,"left_children":[1,3,5,7,9,11,-1,13,15,17,19,-1,21,23,25,27,29,31,33,-1,35,37,39,-1,-1,-1,-1,41,43,45,47,49,51,53,55,-1,-1,-1,57,-1,59,-1,-1,-1,-1,-1,-1,-1,-1,-1,-1,-1,-1,-1,-1,-1,-1,-1,-1,-1,-1],"loss_changes":[6.672339E1,1.4324004E2,1.0472226E2,1.19549225E2,1.3123982E2,5.4802727E1,0E0,2.7770882E1,1.03996414E2,9.407893E1,1.2356567E0,0E0,4.5377274E1,4.078827E-1,1.2006283E1,2.5597794E2,1.831959E2,6.6053024E1,1.253918E2,0E0,2.766943E0,3.324434E1,6.854506E1,0E0,0E0,0E0,0E0,1.2986386E2,1.203006E1,1.637251E2,1.27388E-1,1.248436E0,1.961256E1,2.0254646E1,1.2815475E-1,0E0,0E0,0E0,1.7685684E1,0E0,1.7675152E1,0E0,0E0,0E0,0E0,0E0,0E0,0E0,0E0,0E0,0E0,0E0,0E0,0E0,0E0,0E0,0E0,0E0,0E0,0E0,0E0],"parents":[2147483647,0,0,1,1,2,2,3,3,4,4,5,5,7,7,8,8,9,9,10,10,12,12,13,13,14,14,15,15,16,16,17,17,18,18,20,20,21,21,22,22,27,27,28,28,29,29,30,30,31,31,32,32,33,33,34,34,38,38,40,40],"right_children":[2,4,6,8,10,12,-1,14,16,18,20,-1,22,24,26,28,30,32,34,-1,36,38,40,-1,-1,-1,-1,42,44,46,48,50,52,54,56,-1,-1,-1,58,-1,60,-1,-1,-1,-1,-1,-1,-1,-1,-1,-1,-1,-1,-1,-1,-1,-1,-1,-1,-1,-1],"split_conditions":[2.11E1,1.76E1,3.18E-1,6.4E1,4.1E-1,7E-1,-3.4909117E-1,1.4E0,7.4E-2,3.04E0,3.52E1,-3.6073688E-1,2.62E2,1.047E2,2.3E1,6.5E-2,3.53E1,4.11E1,2.84E1,-3.7067467E-1,9.1E-2,6.95E1,3.69E2,-3.2768172E-1,-4.2439818E-1,2.772113E-1,-2.6215675E-1,1.07E1,1.71E2,9.61E1,1.28E1,3.67E1,1.21E1,2.73E1,1.26E1,-7.2344637E-1,-2.5572634E-1,-3.9323565E-1,1.18E1,-4.2509577E-1,2.42E1,-5.06591E-2,8.430486E-2,-6.437042E-1,-4.0137205E-1,1.9563124E-1,-1.720553E-1,-4.0509805E-1,-3.0493417E-1,-3.3550906E-1,-5.224894E-1,-6.3435626E-1,2.9492575E-1,-3.4682918E-1,3.2523528E-1,-3.4998506E-1,-5.649821E-1,2.5879994E-1,-4.654638E-1,2.7858117E-1,-3.5813802E-1],"split_indices":[7,7,16,8,15,14,0,11,16,1,5,0,8,4,3,16,3,5,3,0,16,4,8,0,0,0,0,9,8,4,2,5,9,3,9,0,0,0,9,0,7,0,0,0,0,0,0,0,0,0,0,0,0,0,0,0,0,0,0,0,0],"split_type":[0,0,0,0,0,0,0,0,0,0,0,0,0,0,0,0,0,0,0,0,0,0,0,0,0,0,0,0,0,0,0,0,0,0,0,0,0,0,0,0,0,0,0,0,0,0,0,0,0,0,0,0,0,0,0,0,0,0,0,0,0],"sum_hessian":[4.6729346E3,4.2676694E3,4.0526505E2,3.8516482E3,4.1602133E2,3.6588208E2,3.9382946E1,1.1692671E2,3.7347214E3,2.4118909E2,1.7483224E2,1.6430614E1,3.4945148E2,1.0264065E2,1.4286062E1,2.8438347E3,8.9088666E2,1.1207427E2,1.2911482E2,1.6735434E2,7.4779058E0,2.8776346E2,6.1688034E1,8.237032E1,2.0270323E1,9.465088E0,4.820974E0,2.741456E3,1.0237879E2,8.24776E2,6.611067E1,8.9819984E1,2.2254288E1,9.840157E1,3.071325E1,3.7638156E0,3.71409E0,6.525602E0,2.8123785E2,2.4682953E1,3.7005077E1,1.7190259E3,1.0224302E3,3.139856E1,7.098023E1,6.963938E2,1.2838219E2,4.444329E1,2.1667377E1,8.346473E1,6.3552585E0,1.3166078E0,2.093768E1,3.4265122E0,9.497506E1,2.7869902E1,2.8433475E0,2.7904733E2,2.1905124E0,3.344198E1,3.563099E0],"tree_param":{"num_deleted":"0","num_feature":"21","num_nodes":"61","size_leaf_vector":"1"}},{"base_weights":[-1.9100195E-2,-2.1782693E-1,6.309254E-2,-6.6807854E-1,7.7498674E-2,9.768026E-2,-9.448143E-1,-1.2209274E0,-5.5578236E-2,-3.4269503E-1,2.733844E-1,2.527361E-1,-6.243518E-2,-1.1786429E0,2.4690361E-1,-3.3379892E-1,-3.9983752E-1,6.47205E-1,-3.5528517E-1,6.3351876E-1,-3.1508592E-1,1.33641E-1,8.1108934E-1,2.5990397E-1,-4.2301977E-1,-1.308115E0,2.0902334E-1,-3.3548063E-1,8.4544855E-1,8.03339E-1,-3.6636522E-1,5.2330357E-1,-1.2548764E0,-4.6952608E-1,2.662662E-1,9.664512E-1,-3.4699485E-1,3.8555565E-1,-3.625464E-1,-7.7548265E-1,3.2681158E-1,-1.414371E0,-3.0943137E-1,2.8435713E-1,-3.372546E-1,-4.4366005E-1,2.6900074E-1,2.4014054E-1,-3.4483337E-1,-5.2560496E-1,-3.4092537E-1,2.0216344E-1,-3.7295902E-1,-1.9895186E-1,1.1376303E-1,3.152323E-1,-3.0608094E-1,-6.534095E-2,1.7492318E-1,-3.5485604E-1,1.2938923E-1,1.8693143E-1,-3.4310547E-1,-3.2993063E-1,-4.5555985E-1],"categories":[],"categories_nodes":[],"categories_segments":[],"categories_sizes":[],"default_left":[0,1,1,1,0,0,0,1,0,0,0,0,1,0,0,0,0,0,0,1,0,1,0,1,0,0,0,0,0,0,0,0,0,0,0,0,0,0,0,0,0,1,0,0,0,0,0,0,0,0,0,0,0,0,0,0,0,0,0,0,0,0,0,0,0],"id":17,"left_children":[1,3,5,7,9,11,13,15,17,-1,19,21,23,25,-1,-1,-1,27,-1,29,31,33,35,37,39,41,-1,-1,43,45,-1,47,49,51,53,55,-1,57,-1,59,61,63,-1,-1,-1,-1,-1,-1,-1,-1,-1,-1,-1,-1,-1,-1,-1,-1,-1,-1,-1,-1,-1,-1,-1],"loss_changes":[7.1245514E1,1.6974652E2,1.07666985E2,1.7113948E2,1.8467633E2,7.4107124E1,4.3329483E1,1.7348633E0,1.9186397E2,0E0,1.4126413E2,1.007222E2,1.7085374E2,2.2986366E1,0E0,0E0,0E0,5.3134216E1,0E0,1.311444E2,2.0028912E2,1.0019456E2,8.255031E1,1.4369022E2,1.8360341E2,1.0515289E0,0E0,0E0,2.822126E1,8.209366E1,0E0,6.3331078E1,5.061386E0,2.0062207E2,1.0796602E2,4.2521957E1,0E0,8.543675E1,0E0,2.3265591E2,9.766994E1,2.634735E-1,0E0,0E0,0E0,0E0,0E0,0E0,0E0,0E0,0E0,0E0,0E0,0E0,0E0,0E0,0E0,0E0,0E0,0E0,0E0,0E0,0E0,0E0,0E0],"parents":[2147483647,0,0,1,1,2,2,3,3,4,4,5,5,6,6,7,7,8,8,10,10,11,11,12,12,13,13,17,17,19,19,20,20,21,21,22,22,23,23,24,24,25,25,28,28,29,29,31,31,32,32,33,33,34,34,35,35,37,37,39,39,40,40,41,41],"right_children":[2,4,6,8,10,12,14,16,18,-1,20,22,24,26,-1,-1,-1,28,-1,30,32,34,36,38,40,42,-1,-1,44,46,-1,48,50,52,54,56,-1,58,-1,60,62,64,-1,-1,-1,-1,-1,-1,-1,-1,-1,-1,-1,-1,-1,-1,-1,-1,-1,-1,-1,-1,-1,-1,-1],"split_conditions":[8.97E1,9.9E0,3.8E-1,6.82E0,3E-2,9.5E1,2.16E1,4.4E-2,9.8E0,-3.4269503E-1,1.02E1,9.46E1,1E1,1.73E1,2.4690361E-1,-3.3379892E-1,-3.9983752E-1,9.8E-1,-3.5528517E-1,7.4E-1,8.38E1,4.7E-1,5.69E0,5E-2,1.8E-1,9.8E0,2.0902334E-1,-3.3548063E-1,3.28E1,5E0,-3.6636522E-1,1.53E1,1.07E1,1.03E2,9.7E0,9E-2,-3.4699485E-1,9.94E1,-3.625464E-1,1.127E2,3.4E0,3.3E-2,-3.0943137E-1,2.8435713E-1,-3.372546E-1,-4.4366005E-1,2.6900074E-1,2.4014054E-1,-3.4483337E-1,-5.2560496E-1,-3.4092537E-1,2.0216344E-1,-3.7295902E-1,-1.9895186E-1,1.1376303E-1,3.152323E-1,-3.0608094E-1,-6.534095E-2,1.7492318E-1,-3.5485604E-1,1.2938923E-1,1.8693143E-1,-3.4310547E-1,-3.2993063E-1,-4.5555985E-1],"split_indices":[4,9,12,10,13,4,7,16,0,0,2,4,9,10,0,0,0,14,0,15,4,15,10,13,12,0,0,0,6,0,0,7,2,8,2,12,0,4,0,4,1,16,0,0,0,0,0,0,0,0,0,0,0,0,0,0,0,0,0,0,0,0,0,0,0],"split_type":[0,0,0,0,0,0,0,0,0,0,0,0,0,0,0,0,0,0,0,0,0,0,0,0,0,0,0,0,0,0,0,0,0,0,0,0,0,0,0,0,0,0,0,0,0,0,0,0,0,0,0,0,0,0,0,0,0,0,0,0,0,0,0,0,0],"sum_hessian":[4.359979E3,1.2751803E3,3.0847988E3,5.0460315E2,7.705771E2,2.983325E3,1.0147388E2,2.646942E2,2.3990895E2,1.0595359E2,6.646235E2,1.5153151E3,1.4680099E3,8.991429E1,1.1559587E1,1.400743E2,1.2461992E2,1.4811342E2,9.179553E1,4.1225406E2,2.5236942E2,1.249945E3,2.6537018E2,7.752585E2,6.927514E2,8.439065E1,5.523645E0,1.44840145E1,1.3362941E2,3.7819342E2,3.406064E1,1.3361464E2,1.1875478E2,2.2484238E2,1.0251025E3,2.4642284E2,1.8947351E1,7.1482745E2,6.0431026E1,4.7121817E2,2.2153323E2,5.8003014E1,2.6387632E1,1.2751803E2,6.11138E0,1.4275216E1,3.639182E2,1.150697E2,1.8544931E1,2.019817E1,9.855662E1,9.079131E1,1.3405107E2,1.10543655E2,9.145589E2,2.3684158E2,9.581247E0,1.7627301E2,5.3855444E2,3.5230945E2,1.18908714E2,1.8486142E2,3.667182E1,1.7302422E1,4.0700592E1],"tree_param":{"num_deleted":"0","num_feature":"21","num_nodes":"65","size_leaf_vector":"1"}},{"base_weights":[-2.35379E-2,-9.839666E-3,-2.9806113E-1,-1.9846442E-1,5.9559442E-2,-6.970649E-1,3.959397E-2,8.621041E-2,-8.626492E-1,7.855147E-1,-9.7766787E-1,-3.5244492E-1,1.855944E-1,6.066605E-1,4.7508102E-2,-1.0961598E0,2.3059551E-1,3.1045863E-1,-3.6522448E-1,-1.173274E0,2.264278E-1,5.0571215E-1,-3.6134306E-1,-1.45157E0,7.963514E-1,2.1878372E-1,-1.1153514E-1,-3.697018E-1,2.0157377E-1,-3.2288736E-1,-3.7644026E-1,2.7265248E-1,-3.309563E-1,2.0376684E-1,-3.4694606E-1,1.1671421E-1,-3.5461858E-1,-7.2166765E-1,-3.3185E-1,2.8367567E-1,-3.6414248E-1,-3.5929593E-1,8.554524E-2,-2.789407E-1,6.3430076E-4],"categories":[],"categories_nodes":[],"categories_segments":[],"categories_sizes":[],"default_left":[1,0,0,0,1,0,0,0,0,0,1,0,0,0,0,0,0,0,0,1,0,1,0,0,0,0,1,0,0,0,0,0,0,0,0,0,0,0,0,0,0,0,0,0,0],"id":18,"left_children":[1,3,-1,5,7,9,11,13,15,17,19,-1,21,23,25,27,-1,-1,-1,29,31,33,35,37,39,41,43,-1,-1,-1,-1,-1,-1,-1,-1,-1,-1,-1,-1,-1,-1,-1,-1,-1,-1],"loss_changes":[5.063759E1,4.922711E1,0E0,1.2008162E2,6.764374E1,1.367681E2,1.2176562E2,5.3810375E1,3.0291538E1,2.7520088E1,6.511368E1,0E0,1.0747834E2,7.335482E1,6.782472E1,1.7210472E1,0E0,0E0,0E0,5.23468E-1,3.6675133E1,1.1239534E2,1.4016019E2,2.597702E0,5.2134148E1,1.13028824E2,1.2008137E2,0E0,0E0,0E0,0E0,0E0,0E0,0E0,0E0,0E0,0E0,0E0,0E0,0E0,0E0,0E0,0E0,0E0,0E0],"parents":[2147483647,0,0,1,1,3,3,4,4,5,5,6,6,7,7,8,8,9,9,10,10,12,12,13,13,14,14,15,15,19,19,20,20,21,21,22,22,23,23,24,24,25,25,26,26],"right_children":[2,4,-1,6,8,10,12,14,16,18,20,-1,22,24,26,28,-1,-1,-1,30,32,34,36,38,40,42,44,-1,-1,-1,-1,-1,-1,-1,-1,-1,-1,-1,-1,-1,-1,-1,-1,-1,-1],"split_conditions":[3.04E0,8.97E1,-2.9806113E-1,9.9E0,3.8E-1,8.4E0,4.1E-1,9.01E1,2.16E1,1.1E1,8E-2,-3.5244492E-1,1.02E1,9.9E0,1E1,1.73E1,2.3059551E-1,3.1045863E-1,-3.6522448E-1,4.2E-2,3.19E0,7.4E-1,8.38E1,8.6E0,1.56E0,2.5E1,7E-1,-3.697018E-1,2.0157377E-1,-3.2288736E-1,-3.7644026E-1,2.7265248E-1,-3.309563E-1,2.0376684E-1,-3.4694606E-1,1.1671421E-1,-3.5461858E-1,-7.2166765E-1,-3.3185E-1,2.8367567E-1,-3.6414248E-1,-3.5929593E-1,8.554524E-2,-2.789407E-1,6.3430076E-4],"split_indices":[14,4,0,9,12,9,15,4,7,17,13,0,2,9,9,10,0,0,0,16,1,15,4,2,14,3,14,0,0,0,0,0,0,0,0,0,0,0,0,0,0,0,0,0,0],"split_type":[0,0,0,0,0,0,0,0,0,0,0,0,0,0,0,0,0,0,0,0,0,0,0,0,0,0,0,0,0,0,0,0,0,0,0,0,0,0,0,0,0,0,0,0,0],"sum_hessian":[3.8107192E3,3.7586501E3,5.2069145E1,1.010441E3,2.748209E3,3.2591064E2,6.8453033E2,2.6719001E3,7.630888E1,5.1580917E1,2.743297E2,7.2708115E1,6.1182227E2,1.8392253E2,2.4879775E3,6.70405E1,9.268387E0,4.6300262E1,5.280654E0,2.3601457E2,3.8315144E1,3.8598434E2,2.258379E2,1.4958953E1,1.6896358E2,1.1977406E3,1.290237E3,6.2527542E1,4.512953E0,1.14275764E2,1.2173881E2,2.5529043E1,1.27861E1,3.500367E2,3.5947624E1,1.1824837E2,1.0758954E2,2.390901E0,1.2568052E1,1.5777963E2,1.1183949E1,5.2845325E1,1.1448953E3,1.5647173E2,1.1337654E3],"tree_param":{"num_deleted":"0","num_feature":"21","num_nodes":"45","size_leaf_vector":"1"}},{"base_weights":[-2.4224596E-2,1.0119838E-1,-1.5064175E-1,-6.687543E-1,1.592893E-1,3.8150558E-1,-2.3919126E-1,-1.2676626E0,4.1339013E-1,-3.5305265E-1,2.5147164E-1,-3.5008544E-1,5.520548E-1,-1.1878273E0,-1.4756024E-1,-3.2507896E-1,-1.4380577E0,-3.4482688E-1,8.2368326E-1,1.729228E-1,-1.2480466E0,1.3948855E-1,6.691494E-1,6.283036E-1,-3.5541654E-1,-1.4925426E0,-3.4064656E-1,6.6492677E-1,-2.2354193E-1,-1.6083947E0,-2.956774E-1,2.8888863E-1,-2.3028389E-1,4.718101E-1,-9.217266E-1,-3.47652E-1,-1.6718386E0,2.7507362E-1,-6.260681E-1,-3.410278E-1,8.007481E-1,-3.2202402E-1,6.990625E-1,-1.7204281E0,-2.8465274E-1,8.7671244E-1,-3.311104E-1,-4.2922905E-1,1.9060855E-1,-3.1352365E-1,-5.3099227E-1,-3.6386397E-1,2.0418932E-1,2.2410297E-1,-3.281696E-1,-6.0525715E-1,-3.0694726E-1,1.050714E-1,-3.623044E-1,-4.052206E-1,2.2768398E-1,-3.2229528E-1,2.699008E-1,-2.9502007E-1,2.2970074E-1,-2.6112226E-1,-5.760744E-1,-2.5883144E-1,2.9168934E-1,-2.0074603E-1,8.144487E-2,1.6679773E-1,-9.607769E-2],"categories":[],"categories_nodes":[],"categories_segments":[],"categories_sizes":[],"default_left":[1,0,0,0,0,0,0,1,0,0,0,0,0,0,0,0,0,0,1,0,0,1,0,0,0,0,0,0,1,1,0,0,0,0,0,0,0,0,0,0,0,0,0,0,0,0,0,0,0,0,0,0,0,0,0,0,0,0,0,0,0,0,0,0,0,0,0,0,0,0,0,0,0],"id":19,"left_children":[1,3,5,7,9,11,13,15,17,19,21,-1,23,25,27,-1,29,-1,31,33,35,37,39,41,-1,43,-1,45,47,49,-1,-1,-1,51,53,-1,55,57,59,-1,61,-1,63,65,-1,67,-1,69,71,-1,-1,-1,-1,-1,-1,-1,-1,-1,-1,-1,-1,-1,-1,-1,-1,-1,-1,-1,-1,-1,-1,-1,-1],"loss_changes":[5.579204E1,7.911449E1,8.266467E1,8.09642E1,7.7701096E1,6.676633E1,1.3047021E2,9.553375E-1,2.9783852E1,1.1837375E2,6.5076256E1,0E0,3.0701591E1,4.1436768E-1,8.483122E1,0E0,1.3866577E0,0E0,8.763121E0,5.244661E1,1.5796356E0,1.1435034E2,7.085661E1,2.692263E1,0E0,3.754387E-1,0E0,4.5002735E1,1.07003845E2,5.560303E-1,0E0,0E0,0E0,4.4989056E1,1.0710646E1,0E0,1.0568047E0,1.0465042E2,1.6744522E2,0E0,5.195868E1,0E0,2.420607E1,5.9272766E-2,0E0,1.8388084E1,0E0,1.4122589E2,7.805525E1,0E0,0E0,0E0,0E0,0E0,0E0,0E0,0E0,0E0,0E0,0E0,0E0,0E0,0E0,0E0,0E0,0E0,0E0,0E0,0E0,0E0,0E0,0E0,0E0],"parents":[2147483647,0,0,1,1,2,2,3,3,4,4,5,5,6,6,7,7,8,8,9,9,10,10,12,12,13,13,14,14,16,16,18,18,19,19,20,20,21,21,22,22,23,23,25,25,27,27,28,28,29,29,33,33,34,34,36,36,37,37,38,38,40,40,42,42,43,43,45,45,47,47,48,48],"right_children":[2,4,6,8,10,12,14,16,18,20,22,-1,24,26,28,-1,30,-1,32,34,36,38,40,42,-1,44,-1,46,48,50,-1,-1,-1,52,54,-1,56,58,60,-1,62,-1,64,66,-1,68,-1,70,72,-1,-1,-1,-1,-1,-1,-1,-1,-1,-1,-1,-1,-1,-1,-1,-1,-1,-1,-1,-1,-1,-1,-1,-1],"split_conditions":[5.7E-1,8.36E1,8.19E1,2E1,2E-2,7.5E0,8.78E1,1E1,8.2E0,1.42E2,2.97E2,-3.5008544E-1,2.1E-1,3.02E1,2.24E0,-3.2507896E-1,4.21E0,-3.4482688E-1,2E-2,5E-1,3.52E1,6.5E-2,2.81E1,4.9E-2,-3.5541654E-1,9.2E0,-3.4064656E-1,1.48E1,7.4E-2,3.1E-1,-2.956774E-1,2.8888863E-1,-2.3028389E-1,1.52E1,1.06E0,-3.47652E-1,8.5E-2,2.51E2,1.84E-1,-3.410278E-1,4E-1,-3.2202402E-1,7.3E-1,8.36E1,-2.8465274E-1,1.89E0,-3.311104E-1,3.76E2,9.22E1,-3.1352365E-1,-5.3099227E-1,-3.6386397E-1,2.0418932E-1,2.2410297E-1,-3.281696E-1,-6.0525715E-1,-3.0694726E-1,1.050714E-1,-3.623044E-1,-4.052206E-1,2.2768398E-1,-3.2229528E-1,2.699008E-1,-2.9502007E-1,2.2970074E-1,-2.6112226E-1,-5.760744E-1,-2.5883144E-1,2.9168934E-1,-2.0074603E-1,8.144487E-2,1.6679773E-1,-9.607769E-2],"split_indices":[15,4,4,7,12,0,4,9,2,8,8,0,12,6,10,0,1,0,12,19,5,16,3,16,0,0,0,7,16,15,0,0,0,7,1,0,16,8,16,0,15,0,14,4,0,10,0,8,4,0,0,0,0,0,0,0,0,0,0,0,0,0,0,0,0,0,0,0,0,0,0,0,0],"split_type":[0,0,0,0,0,0,0,0,0,0,0,0,0,0,0,0,0,0,0,0,0,0,0,0,0,0,0,0,0,0,0,0,0,0,0,0,0,0,0,0,0,0,0,0,0,0,0,0,0,0,0,0,0,0,0,0,0,0,0,0,0,0,0,0,0,0,0,0,0,0,0,0,0],"sum_hessian":[3.5167944E3,1.765439E3,1.7513556E3,1.2311587E2,1.6423231E3,2.4937892E2,1.5019766E3,7.9143036E1,4.3972828E1,2.5000209E2,1.392321E3,2.4162205E1,2.2521672E2,1.3124652E2,1.3707301E3,4.158302E1,3.7560017E1,8.769229E0,3.5203598E1,1.5797133E2,9.203076E1,1.0990026E3,2.933184E2,2.1635637E2,8.860341E0,1.5205252E1,1.16041275E2,1.1656173E2,1.2541683E3,2.5431324E1,1.2128694E1,3.2733448E1,2.4701502E0,1.24536415E2,3.3434917E1,7.9112366E1,1.2918393E1,9.3419183E2,1.6481078E2,1.9403887E1,2.739145E2,8.071475E0,2.082849E2,9.189348E0,6.0159035E0,1.04546974E2,1.2014756E1,8.379604E2,4.1620798E2,7.3332458E0,1.8098078E1,1.3203912E1,1.113325E2,2.8147635E0,3.0620153E1,7.0507984E0,5.8675947E0,8.8984717E2,4.4344673E1,1.0821519E2,5.6595585E1,1.3232378E1,2.6068213E2,7.4075704E0,2.0087733E2,2.7684593E0,6.4208884E0,5.0275893E0,9.951939E1,6.242587E2,2.1370166E2,2.4260391E2,1.7360408E2],"tree_param":{"num_deleted":"0","num_feature":"21","num_nodes":"73","size_leaf_vector":"1"}},{"base_weights":[-2.4142059E-2,1.5649022E-1,-1.15516864E-1,-5.6846E-1,2.4369918E-1,-1.5642601E-1,6.1203486E-1,-3.3381194E-1,5.66252E-1,2.931857E-1,-3.2588455E-1,-1.0323747E0,-1.0356901E-1,-3.966999E-1,6.7659104E-1,2.8723568E-1,-3.5137337E-1,1.8381011E-1,7.616413E-1,5.5324998E-2,-1.2990004E0,1.5582459E-1,-2.5640586E-1,-3.7406477E-1,7.4607104E-1,4.051159E-1,-4.4752184E-1,-3.221625E-1,9.5112747E-1,6.1621624E-1,-3.354774E-1,-1.3587765E0,2.1156059E-1,-5.027326E-1,3.5970417E-1,-5.41267E-1,7.2158754E-2,9.1254807E-1,2.1612069E-1,1.7182073E-1,-9.4993666E-2,-3.5390037E-1,7.8008264E-2,-2.1708529E-1,2.9306716E-1,2.811699E-1,-2.7152675E-1,-3.7098148E-1,-6.222907E-1,1.6042122E-1,-3.7154648E-1,-1.7771259E-1,1.6779573E-1,-3.0698425E-1,-4.587037E-2,1.07871994E-1,-9.462392E-2,2.8949836E-1,-3.1289458E-1,-1.1894224E0,1.7441426E-1],"categories":[],"categories_nodes":[],"categories_segments":[],"categories_sizes":[],"default_left":[1,1,0,0,0,0,0,0,0,0,0,0,0,0,0,0,0,1,1,0,0,0,0,0,0,0,0,0,1,0,0,1,0,0,0,0,0,1,0,0,0,0,0,0,0,0,0,0,0,0,0,0,0,0,0,0,0,0,0,0,0],"id":20,"left_children":[1,3,5,7,9,11,13,-1,15,17,-1,19,21,-1,23,-1,-1,25,27,29,31,33,35,-1,37,39,41,-1,43,45,-1,47,-1,49,51,53,55,57,59,-1,-1,-1,-1,-1,-1,-1,-1,-1,-1,-1,-1,-1,-1,-1,-1,-1,-1,-1,-1,-1,-1],"loss_changes":[5.2577705E1,6.779641E1,6.3053333E1,7.178137E1,6.323528E1,9.2652885E1,1.49818535E1,0E0,2.695706E1,4.7123726E1,0E0,3.3104424E1,7.499056E1,0E0,1.5608002E1,0E0,0E0,1.0485123E2,6.163948E1,1.6081001E1,1.1922485E1,9.437591E1,1.1141692E2,0E0,9.209705E0,6.73543E1,1.0128177E2,0E0,7.5460052E0,8.889769E0,0E0,5.233368E0,0E0,1.2757565E2,1.0225282E2,1.19183075E2,6.176865E1,9.296074E0,4.3228905E1,0E0,0E0,0E0,0E0,0E0,0E0,0E0,0E0,0E0,0E0,0E0,0E0,0E0,0E0,0E0,0E0,0E0,0E0,0E0,0E0,0E0,0E0],"parents":[2147483647,0,0,1,1,2,2,3,3,4,4,5,5,6,6,8,8,9,9,11,11,12,12,14,14,17,17,18,18,19,19,20,20,21,21,22,22,24,24,25,25,26,26,28,28,29,29,31,31,33,33,34,34,35,35,36,36,37,37,38,38],"right_children":[2,4,6,8,10,12,14,-1,16,18,-1,20,22,-1,24,-1,-1,26,28,30,32,34,36,-1,38,40,42,-1,44,46,-1,48,-1,50,52,54,56,58,60,-1,-1,-1,-1,-1,-1,-1,-1,-1,-1,-1,-1,-1,-1,-1,-1,-1,-1,-1,-1,-1,-1],"split_conditions":[9.2E-1,9.2E0,1.149E2,3.44E1,1.518E1,2.66E0,1.35E1,-3.3381194E-1,6.5E-2,1.134E1,-3.2588455E-1,3.5E0,3.16E1,-3.966999E-1,3.4E1,2.8723568E-1,-3.5137337E-1,5.7E-1,1.37E1,1.1E-1,8.14E2,2.78E1,6.21E0,-3.7406477E-1,3E-2,1.005E2,4E-2,-3.221625E-1,3.4E-2,1.3E1,-3.354774E-1,3.47E1,2.1156059E-1,2.29E1,1.3E0,1.23E1,1.05E1,2.83E1,1E2,1.7182073E-1,-9.4993666E-2,-3.5390037E-1,7.8008264E-2,-2.1708529E-1,2.9306716E-1,2.811699E-1,-2.7152675E-1,-3.7098148E-1,-6.222907E-1,1.6042122E-1,-3.7154648E-1,-1.7771259E-1,1.6779573E-1,-3.0698425E-1,-4.587037E-2,1.07871994E-1,-9.462392E-2,2.8949836E-1,-3.1289458E-1,-1.1894224E0,1.7441426E-1],"split_indices":[14,9,4,5,10,1,7,0,16,10,0,0,3,0,8,0,0,15,17,15,8,5,10,0,13,4,13,0,16,17,0,6,0,3,14,2,0,17,8,0,0,0,0,0,0,0,0,0,0,0,0,0,0,0,0,0,0,0,0,0,0],"split_type":[0,0,0,0,0,0,0,0,0,0,0,0,0,0,0,0,0,0,0,0,0,0,0,0,0,0,0,0,0,0,0,0,0,0,0,0,0,0,0,0,0,0,0,0,0,0,0,0,0,0,0,0,0,0,0,0,0,0,0,0,0],"sum_hessian":[3.1834211E3,1.069161E3,2.1142603E3,1.14213036E2,9.54948E2,2.0024504E3,1.1180981E2,7.720317E1,3.700987E1,9.214421E2,3.350587E1,1.1290197E2,1.8895485E3,2.981723E0,1.0882808E2,3.057484E1,6.4350286E0,7.481545E2,1.7328763E2,2.238299E1,9.0518974E1,7.005539E2,1.1889945E3,3.2032704E0,1.0562481E2,5.542331E2,1.939214E2,1.57783575E1,1.5750926E2,1.5466165E1,6.9168262E0,8.821011E1,2.3088644E0,1.6526404E2,5.3528986E2,6.365055E2,5.524891E2,7.982642E1,2.579839E1,4.499455E2,1.0428758E2,9.4976234E1,9.894517E1,1.9759151E0,1.5553336E2,1.3088282E1,2.3778822E0,7.767572E1,1.0534395E1,6.868554E1,9.657849E1,9.243691E1,4.4285294E2,2.8328104E2,3.5322446E2,3.172763E2,2.3521275E2,7.823473E1,1.5916883E0,1.281013E0,2.4517376E1],"tree_param":{"num_deleted":"0","num_feature":"21","num_nodes":"61","size_leaf_vector":"1"}},{"base_weights":[-2.284036E-2,1.9874594E-1,-7.705734E-2,-3.2162222E-1,2.9628253E-1,-1.1786026E0,-4.179755E-2,3.5897565E-1,-1.0775702E0,1.9133346E-1,-3.695994E-1,1.719644E-1,-1.4445138E-1,-3.1462457E-2,5.6948185E-1,2.3213746E-1,-1.4096138E0,-9.639031E-1,2.645817E-1,9.952663E-2,-3.1737158E-1,4.2340326E-1,-1.2779843E0,6.543557E-1,-3.913813E-1,-3.0889258E-1,-6.216527E-1,-3.2553932E-1,2.3054242E-1,3.9773145E-1,-4.445865E-1,-1.3219317E0,1.6721259E-1,-1.0533775E0,-6.277353E-2,1.7281878E-1,-3.334512E-1,-4.0324643E-1,1.7367554E-1,-3.3783233E-1,2.1426173E-1,1.490198E-1,-1.9314313E-1,-3.4521848E-1,1.3215831E-1,1.7182712E-1,-4.3043292E-1,2.5339866E-1,-1.3644571E-2,-3.8574615E-1,1.6041839E-1,1.2749974E-1,-1.0985123E-1],"categories":[],"categories_nodes":[],"categories_segments":[],"categories_sizes":[],"default_left":[0,0,0,0,1,0,0,0,0,0,0,1,0,1,0,0,0,0,0,1,0,0,0,1,0,0,0,0,0,0,1,0,0,0,0,0,0,0,0,0,0,0,0,0,0,0,0,0,0,0,0,0,0],"id":21,"left_children":[1,3,5,-1,7,9,11,13,15,-1,-1,17,19,21,23,-1,25,27,29,31,33,35,37,39,-1,-1,-1,-1,-1,41,43,45,47,49,51,-1,-1,-1,-1,-1,-1,-1,-1,-1,-1,-1,-1,-1,-1,-1,-1,-1,-1],"loss_changes":[3.4871773E1,7.1047905E1,9.051667E1,0E0,4.6099842E1,7.7965164E0,4.9627377E1,4.1797012E1,1.5482946E1,0E0,0E0,7.7452934E1,6.448137E1,1.02039894E2,5.3393967E1,0E0,2.9533844E0,1.2497711E1,6.431772E1,6.125829E1,1.6750458E2,3.1547516E1,6.689186E0,3.4548874E1,0E0,0E0,0E0,0E0,0E0,5.934485E1,6.7914154E1,7.0109253E0,8.7421814E1,8.550647E1,9.863983E1,0E0,0E0,0E0,0E0,0E0,0E0,0E0,0E0,0E0,0E0,0E0,0E0,0E0,0E0,0E0,0E0,0E0,0E0],"parents":[2147483647,0,0,1,1,2,2,4,4,5,5,6,6,7,7,8,8,11,11,12,12,13,13,14,14,16,16,17,17,18,18,19,19,20,20,21,21,22,22,23,23,29,29,30,30,31,31,32,32,33,33,34,34],"right_children":[2,4,6,-1,8,10,12,14,16,-1,-1,18,20,22,24,-1,26,28,30,32,34,36,38,40,-1,-1,-1,-1,-1,42,44,46,48,50,52,-1,-1,-1,-1,-1,-1,-1,-1,-1,-1,-1,-1,-1,-1,-1,-1,-1,-1],"split_conditions":[4.5E-2,8.65E1,1.01E1,-3.2162222E-1,2.26E0,1.19E0,9.4E-1,3.14E1,3.5E0,1.9133346E-1,-3.695994E-1,9.2E0,3.13E1,3.2E-1,1.67E1,2.3213746E-1,3.39E1,3.08E1,3.35E1,1.35E1,3.77E0,2.67E1,1.336E2,3.4E-1,-3.913813E-1,-3.0889258E-1,-6.216527E-1,-3.2553932E-1,2.3054242E-1,1.13E1,1.72E1,1.46E0,1.39E1,1.73E1,3.59E1,1.7281878E-1,-3.334512E-1,-4.0324643E-1,1.7367554E-1,-3.3783233E-1,2.1426173E-1,1.490198E-1,-1.9314313E-1,-3.4521848E-1,1.3215831E-1,1.7182712E-1,-4.3043292E-1,2.5339866E-1,-1.3644571E-2,-3.8574615E-1,1.6041839E-1,1.2749974E-1,-1.0985123E-1],"split_indices":[16,4,17,0,14,1,14,3,0,0,0,9,3,15,17,0,5,7,6,7,1,3,4,15,0,0,0,0,0,9,7,1,7,10,3,0,0,0,0,0,0,0,0,0,0,0,0,0,0,0,0,0,0],"split_type":[0,0,0,0,0,0,0,0,0,0,0,0,0,0,0,0,0,0,0,0,0,0,0,0,0,0,0,0,0,0,0,0,0,0,0,0,0,0,0,0,0,0,0,0,0,0,0,0,0,0,0,0,0],"sum_hessian":[2.9003826E3,5.6962866E2,2.330754E3,3.9890995E1,5.297377E2,7.128624E1,2.2594675E3,5.0732556E2,2.2412115E1,1.7231867E0,6.956306E1,7.3281335E2,1.5266543E3,1.7801021E2,3.2931537E2,3.206026E0,1.9206089E1,5.4538662E1,6.7827466E2,6.3339856E2,8.9325574E2,1.3090298E2,4.7107212E1,3.156701E2,1.3645273E1,1.3829215E1,5.3768735E0,5.1320953E1,3.2177086E0,5.714259E2,1.0684879E2,2.794756E1,6.0545105E2,2.2877191E2,6.644838E2,1.1962953E2,1.12734585E1,4.575294E1,1.3542696E0,9.686721E0,3.0598337E2,5.223028E2,4.9123108E1,5.9266247E1,4.7582546E1,1.3418555E0,2.6605703E1,1.4395888E2,4.6149216E2,1.9972893E2,2.9042973E1,2.5466205E2,4.0982175E2],"tree_param":{"num_deleted":"0","num_feature":"21","num_nodes":"53","size_leaf_vector":"1"}},{"base_weights":[-2.3442846E-2,-9.890141E-3,-8.5362417E-1,-4.7553707E-2,2.6894325E-1,2.6639953E-1,-3.1059194E-1,2.7573349E-2,-7.677478E-1,5.137932E-1,-4.911587E-1,2.3775026E-1,-2.2038667E-1,1.20198004E-1,-1.9440338E-1,7.728993E-1,-9.7877115E-1,6.2840337E-1,-3.5202283E-1,5.055013E-1,-9.793942E-1,6.561942E-2,8.18334E-1,-9.075368E-1,4.178709E-2,2.9592186E-1,-2.4792743E-1,1.0757935E-1,-1.1391584E0,-3.0162293E-1,7.339927E-1,-3.167559E-1,2.7151465E-1,4.6351302E-1,-3.423446E-1,-1.7524218E-2,1.1548554E-1,2.9967597E-1,-3.3026376E-1,-3.601906E-1,1.8867494E-1,1.2352531E-1,-9.7580075E-2,-3.1511948E-1,2.7995482E-1,-3.6518106E-1,-3.1153268E-1,-2.821464E-1,2.3022333E-1,-1.6128962E-1,2.4175346E-1],"categories":[],"categories_nodes":[],"categories_segments":[],"categories_sizes":[],"default_left":[1,1,0,1,0,0,0,0,0,0,0,0,0,0,0,0,0,0,0,0,0,1,0,1,0,0,0,0,0,0,0,0,0,0,0,0,0,0,0,0,0,0,0,0,0,0,0,0,0,0,0],"id":22,"left_children":[1,3,5,7,9,11,-1,13,15,17,19,-1,-1,21,23,25,27,29,-1,31,33,35,37,39,41,-1,-1,43,45,-1,47,-1,-1,49,-1,-1,-1,-1,-1,-1,-1,-1,-1,-1,-1,-1,-1,-1,-1,-1,-1],"loss_changes":[2.9690502E1,2.7299097E1,8.901264E0,1.23918205E2,5.7824615E1,4.116744E0,0E0,4.267722E1,7.10916E1,4.6075607E1,3.7419075E1,0E0,0E0,5.5744038E1,1.0298048E2,9.905473E0,3.335289E1,3.8725464E1,0E0,1.6931576E1,1.2495548E1,5.3861034E1,3.786994E1,6.925159E1,6.2609573E1,0E0,0E0,2.5310144E1,4.397583E-2,0E0,1.23281555E1,0E0,0E0,2.4482808E0,0E0,0E0,0E0,0E0,0E0,0E0,0E0,0E0,0E0,0E0,0E0,0E0,0E0,0E0,0E0,0E0,0E0],"parents":[2147483647,0,0,1,1,2,2,3,3,4,4,5,5,7,7,8,8,9,9,10,10,13,13,14,14,15,15,16,16,17,17,19,19,20,20,21,21,22,22,23,23,24,24,27,27,28,28,30,30,33,33],"right_children":[2,4,6,8,10,12,-1,14,16,18,20,-1,-1,22,24,26,28,30,-1,32,34,36,38,40,42,-1,-1,44,46,-1,48,-1,-1,50,-1,-1,-1,-1,-1,-1,-1,-1,-1,-1,-1,-1,-1,-1,-1,-1,-1],"split_conditions":[9E-2,1.22E0,6.6E0,8.6E-1,4E-2,9.2E0,-3.1059194E-1,3.8E0,8.4E0,1.67E0,2.68E0,2.3775026E-1,-2.2038667E-1,1.23E1,4.08E0,8.14E1,3.5E-2,7.5E-1,-3.5202283E-1,2.5E1,1.2E1,1.8E-1,9.9E0,2.53E0,3.48E0,2.9592186E-1,-2.4792743E-1,1.338E1,3.26E1,-3.0162293E-1,3.13E1,-3.167559E-1,2.7151465E-1,1.68E1,-3.423446E-1,-1.7524218E-2,1.1548554E-1,2.9967597E-1,-3.3026376E-1,-3.601906E-1,1.8867494E-1,1.2352531E-1,-9.7580075E-2,-3.1511948E-1,2.7995482E-1,-3.6518106E-1,-3.1153268E-1,-2.821464E-1,2.3022333E-1,-1.6128962E-1,2.4175346E-1],"split_indices":[13,15,2,15,12,9,0,1,9,15,1,0,0,2,1,4,16,14,0,3,7,12,9,14,10,0,0,10,17,0,6,0,0,0,0,0,0,0,0,0,0,0,0,0,0,0,0,0,0,0,0],"split_type":[0,0,0,0,0,0,0,0,0,0,0,0,0,0,0,0,0,0,0,0,0,0,0,0,0,0,0,0,0,0,0,0,0,0,0,0,0,0,0,0,0,0,0,0,0,0,0,0,0,0,0],"sum_hessian":[2.6386238E3,2.5972358E3,4.1387943E1,2.288892E3,3.0834384E2,5.711535E0,3.5676407E1,2.0735513E3,2.153408E2,2.3346298E2,7.488085E1,3.8804286E0,1.8311067E0,1.4633817E3,6.1016956E2,2.562129E1,1.8971951E2,2.1920044E2,1.4262543E1,2.4609291E1,5.0271564E1,1.358288E3,1.0509369E2,1.5110216E2,4.590674E2,2.2941832E1,2.6794572E0,2.444892E1,1.6527058E2,1.2789115E1,2.0641132E2,4.6796203E0,1.992967E1,4.8794656E0,4.5392097E1,9.7888965E2,3.7939835E2,9.649375E1,8.59994E0,1.2707879E2,2.4023373E1,2.285668E2,2.3050061E2,1.0062768E1,1.4386152E1,8.68369E1,7.843369E1,3.5077357E0,2.0290358E2,1.0979692E0,3.7814963E0],"tree_param":{"num_deleted":"0","num_feature":"21","num_nodes":"51","size_leaf_vector":"1"}},{"base_weights":[-2.1717E-2,-7.8494996E-2,1.682659E-1,-5.82464E-1,-2.3896648E-2,2.802141E-1,-7.50544E-1,4.7446525E-1,-9.9894524E-1,2.2013385E-3,-3.1800976E-1,-3.6944166E-1,3.350309E-1,-3.0547696E-1,6.619181E-1,-2.863852E-1,7.928132E-1,-1.124176E0,2.5900683E-1,3.8643777E-2,-6.514366E-1,7.884852E-1,1.2732492E-1,2.7860317E-1,-1.7906255E-1,8.7728816E-1,-2.9519653E-1,-3.432231E-1,1.23718746E-1,8.2651496E-1,7.5835013E-3,-1.1967511E0,5.7625914E-1,8.9686716E-1,-3.0903706E-1,8.4453577E-1,-1.6914371E-2,2.8260309E-1,-1.9848312E-1,3.126082E-1,-3.2868963E-1,-2.743381E-1,1.6458713E-2,-4.2395732E-1,-3.2008258E-1,-3.0945873E-1,2.8032765E-1,2.8913066E-1,-2.7444345E-1,-2.883297E-1,2.9281595E-1,-3.394074E-1,6.4305946E-2],"categories":[],"categories_nodes":[],"categories_segments":[],"categories_sizes":[],"default_left":[1,0,0,0,0,0,0,0,0,0,0,0,1,0,0,0,0,0,0,0,0,1,0,0,0,0,0,0,0,0,0,0,0,1,0,1,0,0,0,0,0,0,0,0,0,0,0,0,0,0,0,0,0],"id":23,"left_children":[1,3,5,7,9,11,13,15,17,19,-1,-1,21,-1,23,-1,25,27,-1,29,31,33,35,-1,-1,37,-1,-1,-1,39,41,43,45,47,-1,49,51,-1,-1,-1,-1,-1,-1,-1,-1,-1,-1,-1,-1,-1,-1,-1,-1],"loss_changes":[2.6406128E1,5.1838806E1,5.815115E1,8.153883E1,4.600749E1,4.208184E1,2.3910645E1,2.4747494E1,3.1854446E1,3.95787E1,0E0,0E0,4.5677544E1,0E0,4.045689E0,0E0,7.418272E0,4.279419E0,0E0,3.8506004E1,5.9433598E1,3.0982147E1,3.4622707E1,0E0,0E0,4.8282776E0,0E0,0E0,0E0,2.586393E1,6.609735E1,2.0839691E-1,1.6893429E1,1.8390419E1,0E0,1.4244778E1,7.228136E1,0E0,0E0,0E0,0E0,0E0,0E0,0E0,0E0,0E0,0E0,0E0,0E0,0E0,0E0,0E0,0E0],"parents":[2147483647,0,0,1,1,2,2,3,3,4,4,5,5,6,6,7,7,8,8,9,9,12,12,14,14,16,16,17,17,19,19,20,20,21,21,22,22,25,25,29,29,30,30,31,31,32,32,33,33,35,35,36,36],"right_children":[2,4,6,8,10,12,14,16,18,20,-1,-1,22,-1,24,-1,26,28,-1,30,32,34,36,-1,-1,38,-1,-1,-1,40,42,44,46,48,-1,50,52,-1,-1,-1,-1,-1,-1,-1,-1,-1,-1,-1,-1,-1,-1,-1,-1],"split_conditions":[7.65E0,2E-2,3.82E1,4.5E1,4.1E2,4E-1,5.77E0,1.79E1,4.23E1,6.96E0,-3.1800976E-1,-3.6944166E-1,6E-1,-3.0547696E-1,8.02E0,-2.863852E-1,1.149E2,3.04E1,2.5900683E-1,2.1E0,3.49E1,1.04E1,7.85E0,2.7860317E-1,-1.7906255E-1,1E-2,-2.9519653E-1,-3.432231E-1,1.23718746E-1,6.8E1,6.6E-1,7.14E0,1.08E1,1.36E0,-3.0903706E-1,1.66E1,9.74E0,2.8260309E-1,-1.9848312E-1,3.126082E-1,-3.2868963E-1,-2.743381E-1,1.6458713E-2,-4.2395732E-1,-3.2008258E-1,-3.0945873E-1,2.8032765E-1,2.8913066E-1,-2.7444345E-1,-2.883297E-1,2.9281595E-1,-3.394074E-1,6.4305946E-2],"split_indices":[10,12,3,8,8,15,1,7,5,10,0,0,15,0,10,0,4,7,0,0,5,9,10,0,0,12,0,0,0,8,14,10,2,14,0,17,10,0,0,0,0,0,0,0,0,0,0,0,0,0,0,0,0],"split_type":[0,0,0,0,0,0,0,0,0,0,0,0,0,0,0,0,0,0,0,0,0,0,0,0,0,0,0,0,0,0,0,0,0,0,0,0,0,0,0,0,0,0,0,0,0,0,0,0,0,0,0,0,0],"sum_hessian":[2.4457686E3,1.8834658E3,5.6230286E2,1.8315831E2,1.7003075E3,5.01852E2,6.045084E1,5.173305E1,1.3142526E2,1.6595061E3,4.080144E1,1.6810232E1,4.8504178E2,5.1053455E1,9.397382E0,9.06064E0,4.2672413E1,1.2351578E2,7.90949E0,1.5727605E3,8.674562E1,1.5149927E2,3.335425E2,7.9705405E0,1.4268416E0,4.121898E1,1.453432E0,1.2218868E2,1.3270912E0,5.8680027E1,1.5140804E3,6.008323E1,2.6662394E1,1.4345665E2,8.042611E0,5.5034687E1,2.785078E2,3.9927597E1,1.2913829E0,5.3175804E1,5.5042233E0,7.2954895E1,1.4411255E3,1.8818754E1,4.1264473E1,4.514961E0,2.2147432E1,1.387991E2,4.6575465E0,3.308175E0,5.1726513E1,4.7194168E1,2.3131364E2],"tree_param":{"num_deleted":"0","num_feature":"21","num_nodes":"53","size_leaf_vector":"1"}},{"base_weights":[-2.0590806E-2,-8.708276E-2,1.4446625E-1,6.155646E-1,-1.3180251E-1,-7.029003E-1,3.0399007E-1,7.7493435E-1,-3.0883256E-1,1.4375111E-2,-4.548353E-1,5.53274E-1,-3.1178406E-1,3.9399838E-1,-6.5954113E-1,-2.6604664E-1,8.913308E-1,3.656918E-1,-1.4043093E-1,-6.903281E-1,2.0064822E-1,2.6827645E-1,-2.761006E-1,1.9908046E-2,5.764908E-1,7.1475995E-1,-3.8738272E-1,9.6230686E-1,-2.2800513E-1,-3.2434735E-1,4.508147E-1,-4.496807E-1,2.4599461E-1,-1.0072397E0,-1.668295E-1,-8.9586705E-1,5.380155E-1,4.415025E-1,-6.827609E-1,6.944482E-1,-2.2991216E-1,2.6538667E-1,-2.5074008E-1,-2.2369017E-1,3.048001E-1,-3.01988E-1,1.6089562E-1,7.588321E-2,-2.224632E-1,-2.380265E-1,1.22207016E-1,2.2792503E-1,-3.5409617E-1,1.4121765E-1,-3.1760037E-1,-4.4779876E-1,2.3172577E-1,-3.0776018E-1,2.2032203E-1,1.5397689E-1,-6.5144503E-1,-3.5102463E-1,2.5686225E-1,2.1872005E-1,-3.1259757E-1,1.7671654E-1,-2.3451985E-1],"categories":[],"categories_nodes":[],"categories_segments":[],"categories_sizes":[],"default_left":[1,0,0,1,0,0,1,0,0,0,1,0,0,0,0,0,0,0,0,1,1,0,0,0,1,0,0,0,0,0,1,1,0,0,0,0,0,0,0,1,0,0,0,0,0,0,0,0,0,0,0,0,0,0,0,0,0,0,0,0,0,0,0,0,0,0,0],"id":24,"left_children":[1,3,5,7,9,11,13,15,-1,17,19,21,-1,23,25,-1,27,29,31,33,35,-1,-1,37,39,41,-1,43,-1,-1,45,47,49,51,